<?xml version="1.0"?>
<opencv_storage>
<cascade>
  <stageType>BOOST</stageType>
  <featureType>HAAR</featureType>
  <height>24</height>
  <width>26</width>
  <stageParams>
    <boostType>GAB</boostType>
    <minHitRate>9.9500000476837158e-01</minHitRate>
    <maxFalseAlarm>5.0000000000000000e-01</maxFalseAlarm>
    <weightTrimRate>9.4999999999999996e-01</weightTrimRate>
    <maxDepth>1</maxDepth>
    <maxWeakCount>100</maxWeakCount></stageParams>
  <featureParams>
    <maxCatCount>0</maxCatCount>
    <featSize>1</featSize>
    <mode>BASIC</mode></featureParams>
  <stageNum>20</stageNum>
  <stages>
    <!-- stage 0 -->
    <_>
      <maxWeakCount>3</maxWeakCount>
      <stageThreshold>-4.8764264583587646e-01</stageThreshold>
      <weakClassifiers>
        <_>
          <internalNodes>
            0 -1 35 -1.0944122448563576e-02</internalNodes>
          <leafValues>
            8.9743590354919434e-01 -7.0270270109176636e-01</leafValues></_>
        <_>
          <internalNodes>
            0 -1 68 3.8773994892835617e-03</internalNodes>
          <leafValues>
            -3.6239236593246460e-01 8.3930492401123047e-01</leafValues></_>
        <_>
          <internalNodes>
            0 -1 57 -1.4748754911124706e-03</internalNodes>
          <leafValues>
            6.3537520170211792e-01 -6.2424486875534058e-01</leafValues></_></weakClassifiers></_>
    <!-- stage 1 -->
    <_>
      <maxWeakCount>6</maxWeakCount>
      <stageThreshold>-1.1096024513244629e+00</stageThreshold>
      <weakClassifiers>
        <_>
          <internalNodes>
            0 -1 39 -1.6642959788441658e-02</internalNodes>
          <leafValues>
            7.9229873418807983e-01 -5.4347825050354004e-01</leafValues></_>
        <_>
          <internalNodes>
            0 -1 2 -9.2469314113259315e-03</internalNodes>
          <leafValues>
            9.3360948562622070e-01 -3.6314660310745239e-01</leafValues></_>
        <_>
          <internalNodes>
            0 -1 78 1.2325509451329708e-02</internalNodes>
          <leafValues>
            -5.1853591203689575e-01 6.9392359256744385e-01</leafValues></_>
        <_>
          <internalNodes>
            0 -1 164 -5.3483434021472931e-03</internalNodes>
          <leafValues>
            7.6444226503372192e-01 -4.0862452983856201e-01</leafValues></_>
        <_>
          <internalNodes>
            0 -1 22 -1.0952562093734741e-02</internalNodes>
          <leafValues>
            9.1034454107284546e-01 -3.2086676359176636e-01</leafValues></_>
        <_>
          <internalNodes>
            0 -1 63 -4.2517133988440037e-03</internalNodes>
          <leafValues>
            8.4466642141342163e-01 -2.9072731733322144e-01</leafValues></_></weakClassifiers></_>
    <!-- stage 2 -->
    <_>
      <maxWeakCount>7</maxWeakCount>
      <stageThreshold>-1.2126317620277405e-01</stageThreshold>
      <weakClassifiers>
        <_>
          <internalNodes>
            0 -1 98 -1.4989246847108006e-03</internalNodes>
          <leafValues>
            7.9974967241287231e-01 -2.4793387949466705e-01</leafValues></_>
        <_>
          <internalNodes>
            0 -1 165 -1.5194866806268692e-02</internalNodes>
          <leafValues>
            9.5519942045211792e-01 -2.5398394465446472e-01</leafValues></_>
        <_>
          <internalNodes>
            0 -1 25 2.4110335856676102e-02</internalNodes>
          <leafValues>
            -4.9594837427139282e-01 6.5469044446945190e-01</leafValues></_>
        <_>
          <internalNodes>
            0 -1 5 -1.0094427503645420e-02</internalNodes>
          <leafValues>
            7.5006783008575439e-01 -2.9119330644607544e-01</leafValues></_>
        <_>
          <internalNodes>
            0 -1 24 -5.5799260735511780e-03</internalNodes>
          <leafValues>
            7.5373876094818115e-01 -4.0646821260452271e-01</leafValues></_>
        <_>
          <internalNodes>
            0 -1 112 -5.1486976444721222e-03</internalNodes>
          <leafValues>
            8.2922017574310303e-01 -2.3689039051532745e-01</leafValues></_>
        <_>
          <internalNodes>
            0 -1 108 6.9467690773308277e-03</internalNodes>
          <leafValues>
            -3.0263918638229370e-01 8.3776032924652100e-01</leafValues></_></weakClassifiers></_>
    <!-- stage 3 -->
    <_>
      <maxWeakCount>9</maxWeakCount>
      <stageThreshold>-5.8326411247253418e-01</stageThreshold>
      <weakClassifiers>
        <_>
          <internalNodes>
            0 -1 77 8.0312341451644897e-03</internalNodes>
          <leafValues>
            -3.0143541097640991e-01 7.7163463830947876e-01</leafValues></_>
        <_>
          <internalNodes>
            0 -1 6 -2.1680239588022232e-02</internalNodes>
          <leafValues>
            8.8515704870223999e-01 -2.1017554402351379e-01</leafValues></_>
        <_>
          <internalNodes>
            0 -1 167 -1.9531574100255966e-02</internalNodes>
          <leafValues>
            8.5716438293457031e-01 -1.9331660866737366e-01</leafValues></_>
        <_>
          <internalNodes>
            0 -1 29 1.6653969883918762e-02</internalNodes>
          <leafValues>
            -2.2941210865974426e-01 8.5874289274215698e-01</leafValues></_>
        <_>
          <internalNodes>
            0 -1 79 7.3280027136206627e-03</internalNodes>
          <leafValues>
            -2.4542808532714844e-01 6.7147582769393921e-01</leafValues></_>
        <_>
          <internalNodes>
            0 -1 120 -1.0293246246874332e-02</internalNodes>
          <leafValues>
            8.0637478828430176e-01 -2.1881131827831268e-01</leafValues></_>
        <_>
          <internalNodes>
            0 -1 127 -1.0862142778933048e-02</internalNodes>
          <leafValues>
            8.0797356367111206e-01 -2.9701349139213562e-01</leafValues></_>
        <_>
          <internalNodes>
            0 -1 137 -1.0032513178884983e-02</internalNodes>
          <leafValues>
            8.0053210258483887e-01 -2.2581450641155243e-01</leafValues></_>
        <_>
          <internalNodes>
            0 -1 66 -6.8141985684633255e-03</internalNodes>
          <leafValues>
            -7.4230170249938965e-01 3.1295683979988098e-01</leafValues></_></weakClassifiers></_>
    <!-- stage 4 -->
    <_>
      <maxWeakCount>7</maxWeakCount>
      <stageThreshold>-4.6983942389488220e-01</stageThreshold>
      <weakClassifiers>
        <_>
          <internalNodes>
            0 -1 36 2.5871084071695805e-03</internalNodes>
          <leafValues>
            7.1208792924880981e-01 -5.2671754360198975e-01</leafValues></_>
        <_>
          <internalNodes>
            0 -1 75 1.3269730843603611e-03</internalNodes>
          <leafValues>
            -4.3453323841094971e-01 6.5480589866638184e-01</leafValues></_>
        <_>
          <internalNodes>
            0 -1 8 -1.3554109260439873e-02</internalNodes>
          <leafValues>
            6.9008427858352661e-01 -3.8528513908386230e-01</leafValues></_>
        <_>
          <internalNodes>
            0 -1 162 -3.9590471424162388e-03</internalNodes>
          <leafValues>
            6.0172158479690552e-01 -4.6354612708091736e-01</leafValues></_>
        <_>
          <internalNodes>
            0 -1 117 -5.7278713211417198e-03</internalNodes>
          <leafValues>
            8.1478780508041382e-01 -2.9544687271118164e-01</leafValues></_>
        <_>
          <internalNodes>
            0 -1 129 -7.5729722157120705e-03</internalNodes>
          <leafValues>
            8.3633208274841309e-01 -2.7091175317764282e-01</leafValues></_>
        <_>
          <internalNodes>
            0 -1 122 -9.0055000036954880e-03</internalNodes>
          <leafValues>
            7.9835343360900879e-01 -2.6591029763221741e-01</leafValues></_></weakClassifiers></_>
    <!-- stage 5 -->
    <_>
      <maxWeakCount>7</maxWeakCount>
      <stageThreshold>-2.9940691590309143e-01</stageThreshold>
      <weakClassifiers>
        <_>
          <internalNodes>
            0 -1 93 1.6514989547431469e-03</internalNodes>
          <leafValues>
            -4.7572815418243408e-01 8.1077843904495239e-01</leafValues></_>
        <_>
          <internalNodes>
            0 -1 168 -1.3284077867865562e-02</internalNodes>
          <leafValues>
            7.7504044771194458e-01 -2.2138245403766632e-01</leafValues></_>
        <_>
          <internalNodes>
            0 -1 74 3.1268433667719364e-03</internalNodes>
          <leafValues>
            -4.9245595932006836e-01 5.2369862794876099e-01</leafValues></_>
        <_>
          <internalNodes>
            0 -1 81 1.3728909194469452e-02</internalNodes>
          <leafValues>
            2.4760986864566803e-01 -9.0702337026596069e-01</leafValues></_>
        <_>
          <internalNodes>
            0 -1 161 -1.2676587328314781e-02</internalNodes>
          <leafValues>
            8.0394446849822998e-01 -3.0536645650863647e-01</leafValues></_>
        <_>
          <internalNodes>
            0 -1 71 -2.2384081035852432e-02</internalNodes>
          <leafValues>
            -7.9099327325820923e-01 2.6584345102310181e-01</leafValues></_>
        <_>
          <internalNodes>
            0 -1 49 -3.3182236365973949e-03</internalNodes>
          <leafValues>
            8.3830052614212036e-01 -3.1435015797615051e-01</leafValues></_></weakClassifiers></_>
    <!-- stage 6 -->
    <_>
      <maxWeakCount>7</maxWeakCount>
      <stageThreshold>-6.6324330866336823e-02</stageThreshold>
      <weakClassifiers>
        <_>
          <internalNodes>
            0 -1 54 1.5260375803336501e-03</internalNodes>
          <leafValues>
            -2.9756098985671997e-01 7.6555025577545166e-01</leafValues></_>
        <_>
          <internalNodes>
            0 -1 27 3.8412809371948242e-02</internalNodes>
          <leafValues>
            -1.9352342188358307e-01 8.0048650503158569e-01</leafValues></_>
        <_>
          <internalNodes>
            0 -1 10 -1.0279634967446327e-02</internalNodes>
          <leafValues>
            5.4553610086441040e-01 -3.9952939748764038e-01</leafValues></_>
        <_>
          <internalNodes>
            0 -1 4 1.5682235360145569e-02</internalNodes>
          <leafValues>
            2.5039830803871155e-01 -8.7452781200408936e-01</leafValues></_>
        <_>
          <internalNodes>
            0 -1 64 -1.5496858395636082e-02</internalNodes>
          <leafValues>
            -6.8868762254714966e-01 2.5345525145530701e-01</leafValues></_>
        <_>
          <internalNodes>
            0 -1 104 1.3994020409882069e-03</internalNodes>
          <leafValues>
            1.6506470739841461e-01 -8.6723065376281738e-01</leafValues></_>
        <_>
          <internalNodes>
            0 -1 48 -1.2926093302667141e-02</internalNodes>
          <leafValues>
            -6.5877807140350342e-01 2.7168533205986023e-01</leafValues></_></weakClassifiers></_>
    <!-- stage 7 -->
    <_>
      <maxWeakCount>8</maxWeakCount>
      <stageThreshold>-2.7380356192588806e-01</stageThreshold>
      <weakClassifiers>
        <_>
          <internalNodes>
            0 -1 28 -2.7724722400307655e-02</internalNodes>
          <leafValues>
            -7.0114940404891968e-01 6.7085951566696167e-01</leafValues></_>
        <_>
          <internalNodes>
            0 -1 171 -2.4332245811820030e-02</internalNodes>
          <leafValues>
            8.5628402233123779e-01 -1.6772052645683289e-01</leafValues></_>
        <_>
          <internalNodes>
            0 -1 87 -1.1087666498497128e-03</internalNodes>
          <leafValues>
            7.4826526641845703e-01 -2.5609284639358521e-01</leafValues></_>
        <_>
          <internalNodes>
            0 -1 103 1.9009615061804652e-03</internalNodes>
          <leafValues>
            -2.6770082116127014e-01 7.5816529989242554e-01</leafValues></_>
        <_>
          <internalNodes>
            0 -1 38 -1.9932657014578581e-03</internalNodes>
          <leafValues>
            3.1533148884773254e-01 -7.2176831960678101e-01</leafValues></_>
        <_>
          <internalNodes>
            0 -1 52 -1.3569935224950314e-02</internalNodes>
          <leafValues>
            8.3235085010528564e-01 -2.5146940350532532e-01</leafValues></_>
        <_>
          <internalNodes>
            0 -1 56 8.2262214273214340e-03</internalNodes>
          <leafValues>
            -2.3642258346080780e-01 8.2360392808914185e-01</leafValues></_>
        <_>
          <internalNodes>
            0 -1 58 -4.9560507759451866e-03</internalNodes>
          <leafValues>
            -8.2636028528213501e-01 2.8706243634223938e-01</leafValues></_></weakClassifiers></_>
    <!-- stage 8 -->
    <_>
      <maxWeakCount>8</maxWeakCount>
      <stageThreshold>-3.4677019715309143e-01</stageThreshold>
      <weakClassifiers>
        <_>
          <internalNodes>
            0 -1 15 -1.9835051149129868e-02</internalNodes>
          <leafValues>
            -7.4025976657867432e-01 6.5975105762481689e-01</leafValues></_>
        <_>
          <internalNodes>
            0 -1 12 -1.0060548782348633e-02</internalNodes>
          <leafValues>
            7.1980482339859009e-01 -2.8828087449073792e-01</leafValues></_>
        <_>
          <internalNodes>
            0 -1 83 -8.6954217404127121e-03</internalNodes>
          <leafValues>
            5.1478403806686401e-01 -4.8607248067855835e-01</leafValues></_>
        <_>
          <internalNodes>
            0 -1 118 -7.9135620035231113e-04</internalNodes>
          <leafValues>
            5.6347876787185669e-01 -3.3782884478569031e-01</leafValues></_>
        <_>
          <internalNodes>
            0 -1 107 -1.9644764252007008e-03</internalNodes>
          <leafValues>
            7.9555368423461914e-01 -2.5978192687034607e-01</leafValues></_>
        <_>
          <internalNodes>
            0 -1 101 -1.1443598195910454e-03</internalNodes>
          <leafValues>
            7.5162845849990845e-01 -2.1701185405254364e-01</leafValues></_>
        <_>
          <internalNodes>
            0 -1 100 -2.4616564624011517e-03</internalNodes>
          <leafValues>
            7.6049846410751343e-01 -1.9547735154628754e-01</leafValues></_>
        <_>
          <internalNodes>
            0 -1 72 3.6406442523002625e-02</internalNodes>
          <leafValues>
            2.1388132870197296e-01 -9.1497194766998291e-01</leafValues></_></weakClassifiers></_>
    <!-- stage 9 -->
    <_>
      <maxWeakCount>7</maxWeakCount>
      <stageThreshold>-2.7799743413925171e-01</stageThreshold>
      <weakClassifiers>
        <_>
          <internalNodes>
            0 -1 41 -5.2763935178518295e-02</internalNodes>
          <leafValues>
            7.4736839532852173e-01 -3.2258063554763794e-01</leafValues></_>
        <_>
          <internalNodes>
            0 -1 88 1.7715385183691978e-03</internalNodes>
          <leafValues>
            4.2505076527595520e-01 -7.4542927742004395e-01</leafValues></_>
        <_>
          <internalNodes>
            0 -1 9 -3.2681930810213089e-02</internalNodes>
          <leafValues>
            9.1681921482086182e-01 -2.4533700942993164e-01</leafValues></_>
        <_>
          <internalNodes>
            0 -1 62 -1.8165328074246645e-03</internalNodes>
          <leafValues>
            -8.7864506244659424e-01 2.7693799138069153e-01</leafValues></_>
        <_>
          <internalNodes>
            0 -1 46 1.7546236515045166e-02</internalNodes>
          <leafValues>
            -2.6704171299934387e-01 8.8276445865631104e-01</leafValues></_>
        <_>
          <internalNodes>
            0 -1 61 1.2078892905265093e-03</internalNodes>
          <leafValues>
            3.4633234143257141e-01 -6.7635619640350342e-01</leafValues></_>
        <_>
          <internalNodes>
            0 -1 60 -2.0113211125135422e-02</internalNodes>
          <leafValues>
            6.6422384977340698e-01 -3.4589862823486328e-01</leafValues></_></weakClassifiers></_>
    <!-- stage 10 -->
    <_>
      <maxWeakCount>9</maxWeakCount>
      <stageThreshold>-2.2405768930912018e-01</stageThreshold>
      <weakClassifiers>
        <_>
          <internalNodes>
            0 -1 133 1.4274269342422485e-03</internalNodes>
          <leafValues>
            6.5092402696609497e-01 -8.2089549303054810e-01</leafValues></_>
        <_>
          <internalNodes>
            0 -1 115 -1.5556661412119865e-02</internalNodes>
          <leafValues>
            9.2441123723983765e-01 -1.4487981796264648e-01</leafValues></_>
        <_>
          <internalNodes>
            0 -1 1 -2.4566143751144409e-02</internalNodes>
          <leafValues>
            7.0450699329376221e-01 -2.9314973950386047e-01</leafValues></_>
        <_>
          <internalNodes>
            0 -1 124 -6.0069770552217960e-03</internalNodes>
          <leafValues>
            7.1209263801574707e-01 -2.6061320304870605e-01</leafValues></_>
        <_>
          <internalNodes>
            0 -1 128 -1.7796780914068222e-02</internalNodes>
          <leafValues>
            7.8804153203964233e-01 -2.3793268203735352e-01</leafValues></_>
        <_>
          <internalNodes>
            0 -1 132 8.4250718355178833e-03</internalNodes>
          <leafValues>
            -1.4173790812492371e-01 8.8749653100967407e-01</leafValues></_>
        <_>
          <internalNodes>
            0 -1 104 -1.6209800960496068e-03</internalNodes>
          <leafValues>
            -8.2987809181213379e-01 2.6620671153068542e-01</leafValues></_>
        <_>
          <internalNodes>
            0 -1 34 1.8762752413749695e-02</internalNodes>
          <leafValues>
            -2.9549694061279297e-01 7.5726532936096191e-01</leafValues></_>
        <_>
          <internalNodes>
            0 -1 172 2.8313715010881424e-03</internalNodes>
          <leafValues>
            2.5941559672355652e-01 -6.8124377727508545e-01</leafValues></_></weakClassifiers></_>
    <!-- stage 11 -->
    <_>
      <maxWeakCount>10</maxWeakCount>
      <stageThreshold>-5.2344691753387451e-01</stageThreshold>
      <weakClassifiers>
        <_>
          <internalNodes>
            0 -1 97 -4.5092077925801277e-03</internalNodes>
          <leafValues>
            7.7449661493301392e-01 6.7567569203674793e-03</leafValues></_>
        <_>
          <internalNodes>
            0 -1 148 1.5812527388334274e-02</internalNodes>
          <leafValues>
            -8.4906436502933502e-02 9.3478906154632568e-01</leafValues></_>
        <_>
          <internalNodes>
            0 -1 44 -1.7677674070000648e-02</internalNodes>
          <leafValues>
            4.8990014195442200e-01 -3.4536832571029663e-01</leafValues></_>
        <_>
          <internalNodes>
            0 -1 153 1.4717781916260719e-02</internalNodes>
          <leafValues>
            -2.5140404701232910e-01 8.3817535638809204e-01</leafValues></_>
        <_>
          <internalNodes>
            0 -1 169 -1.7388168722391129e-02</internalNodes>
          <leafValues>
            5.8296054601669312e-01 -2.9804533720016479e-01</leafValues></_>
        <_>
          <internalNodes>
            0 -1 14 2.8145574033260345e-03</internalNodes>
          <leafValues>
            -4.2627364397048950e-01 4.3349769711494446e-01</leafValues></_>
        <_>
          <internalNodes>
            0 -1 110 3.6889567971229553e-02</internalNodes>
          <leafValues>
            -4.0313228964805603e-01 3.8738298416137695e-01</leafValues></_>
        <_>
          <internalNodes>
            0 -1 50 1.1864439584314823e-03</internalNodes>
          <leafValues>
            1.9603368639945984e-01 -8.1622141599655151e-01</leafValues></_>
        <_>
          <internalNodes>
            0 -1 47 1.2252149172127247e-02</internalNodes>
          <leafValues>
            -2.4929608404636383e-01 6.0630571842193604e-01</leafValues></_>
        <_>
          <internalNodes>
            0 -1 55 7.1653192862868309e-03</internalNodes>
          <leafValues>
            -2.7081948518753052e-01 5.6931889057159424e-01</leafValues></_></weakClassifiers></_>
    <!-- stage 12 -->
    <_>
      <maxWeakCount>10</maxWeakCount>
      <stageThreshold>-4.9826541543006897e-01</stageThreshold>
      <weakClassifiers>
        <_>
          <internalNodes>
            0 -1 92 6.9131469354033470e-03</internalNodes>
          <leafValues>
            -3.9999999105930328e-02 7.9757082462310791e-01</leafValues></_>
        <_>
          <internalNodes>
            0 -1 69 -1.3444770127534866e-02</internalNodes>
          <leafValues>
            7.4294513463973999e-01 -1.1899282038211823e-01</leafValues></_>
        <_>
          <internalNodes>
            0 -1 32 -1.4653631485998631e-02</internalNodes>
          <leafValues>
            2.7354207634925842e-01 -7.3590505123138428e-01</leafValues></_>
        <_>
          <internalNodes>
            0 -1 85 8.5111742373555899e-04</internalNodes>
          <leafValues>
            -2.8918394446372986e-01 5.6721919775009155e-01</leafValues></_>
        <_>
          <internalNodes>
            0 -1 99 1.9937600009143353e-03</internalNodes>
          <leafValues>
            -2.3127910494804382e-01 6.2733930349349976e-01</leafValues></_>
        <_>
          <internalNodes>
            0 -1 142 1.4282787451520562e-03</internalNodes>
          <leafValues>
            2.1331723034381866e-01 -8.5800874233245850e-01</leafValues></_>
        <_>
          <internalNodes>
            0 -1 59 -9.2661399394273758e-03</internalNodes>
          <leafValues>
            5.9110683202743530e-01 -2.9990217089653015e-01</leafValues></_>
        <_>
          <internalNodes>
            0 -1 51 -1.1789785698056221e-02</internalNodes>
          <leafValues>
            6.5866303443908691e-01 -2.3003847897052765e-01</leafValues></_>
        <_>
          <internalNodes>
            0 -1 126 -2.0715268328785896e-03</internalNodes>
          <leafValues>
            -8.5897374153137207e-01 2.1113365888595581e-01</leafValues></_>
        <_>
          <internalNodes>
            0 -1 17 -8.9460298418998718e-02</internalNodes>
          <leafValues>
            -8.4326499700546265e-01 1.4375583827495575e-01</leafValues></_></weakClassifiers></_>
    <!-- stage 13 -->
    <_>
      <maxWeakCount>12</maxWeakCount>
      <stageThreshold>-5.1189726591110229e-01</stageThreshold>
      <weakClassifiers>
        <_>
          <internalNodes>
            0 -1 40 -5.6490421295166016e-02</internalNodes>
          <leafValues>
            7.1295213699340820e-01 -1.7391304671764374e-01</leafValues></_>
        <_>
          <internalNodes>
            0 -1 67 7.5243073515594006e-03</internalNodes>
          <leafValues>
            -2.8041526675224304e-01 5.5764317512512207e-01</leafValues></_>
        <_>
          <internalNodes>
            0 -1 170 -2.4303216487169266e-02</internalNodes>
          <leafValues>
            7.5339692831039429e-01 -2.2925741970539093e-01</leafValues></_>
        <_>
          <internalNodes>
            0 -1 160 -2.0689567551016808e-02</internalNodes>
          <leafValues>
            8.6170190572738647e-01 -1.6307868063449860e-01</leafValues></_>
        <_>
          <internalNodes>
            0 -1 96 7.3082279413938522e-04</internalNodes>
          <leafValues>
            -4.9414303898811340e-01 3.1615975499153137e-01</leafValues></_>
        <_>
          <internalNodes>
            0 -1 174 -9.9537614732980728e-04</internalNodes>
          <leafValues>
            -6.8467712402343750e-01 2.1411444246768951e-01</leafValues></_>
        <_>
          <internalNodes>
            0 -1 33 -1.2819075956940651e-02</internalNodes>
          <leafValues>
            8.0953717231750488e-01 -1.9055923819541931e-01</leafValues></_>
        <_>
          <internalNodes>
            0 -1 37 1.7402689903974533e-02</internalNodes>
          <leafValues>
            -1.8820805847644806e-01 7.6715290546417236e-01</leafValues></_>
        <_>
          <internalNodes>
            0 -1 146 -1.8720587249845266e-03</internalNodes>
          <leafValues>
            5.0397133827209473e-01 -2.9823744297027588e-01</leafValues></_>
        <_>
          <internalNodes>
            0 -1 102 9.9006085656583309e-04</internalNodes>
          <leafValues>
            -2.2642980515956879e-01 6.8444478511810303e-01</leafValues></_>
        <_>
          <internalNodes>
            0 -1 23 -3.8856547325849533e-03</internalNodes>
          <leafValues>
            6.3451170921325684e-01 -2.0600733160972595e-01</leafValues></_>
        <_>
          <internalNodes>
            0 -1 13 9.8490584641695023e-03</internalNodes>
          <leafValues>
            2.2714290022850037e-01 -7.1440601348876953e-01</leafValues></_></weakClassifiers></_>
    <!-- stage 14 -->
    <_>
      <maxWeakCount>11</maxWeakCount>
      <stageThreshold>-2.9092362523078918e-01</stageThreshold>
      <weakClassifiers>
        <_>
          <internalNodes>
            0 -1 73 -3.2528704032301903e-03</internalNodes>
          <leafValues>
            -1.5217390656471252e-01 7.0828473567962646e-01</leafValues></_>
        <_>
          <internalNodes>
            0 -1 114 -1.1969178915023804e-02</internalNodes>
          <leafValues>
            9.3633556365966797e-01 -8.6962848901748657e-02</leafValues></_>
        <_>
          <internalNodes>
            0 -1 166 -1.0925639420747757e-02</internalNodes>
          <leafValues>
            6.8919932842254639e-01 -2.0634448528289795e-01</leafValues></_>
        <_>
          <internalNodes>
            0 -1 158 2.0601116120815277e-02</internalNodes>
          <leafValues>
            -1.9271892309188843e-01 8.7913000583648682e-01</leafValues></_>
        <_>
          <internalNodes>
            0 -1 65 -3.2998090609908104e-03</internalNodes>
          <leafValues>
            -7.5486326217651367e-01 2.2453875839710236e-01</leafValues></_>
        <_>
          <internalNodes>
            0 -1 156 -1.6058206558227539e-02</internalNodes>
          <leafValues>
            7.4782758951187134e-01 -2.2331111133098602e-01</leafValues></_>
        <_>
          <internalNodes>
            0 -1 140 1.0088879615068436e-02</internalNodes>
          <leafValues>
            -1.8831811845302582e-01 7.4509042501449585e-01</leafValues></_>
        <_>
          <internalNodes>
            0 -1 138 1.2648146599531174e-02</internalNodes>
          <leafValues>
            -1.9426676630973816e-01 8.8378757238388062e-01</leafValues></_>
        <_>
          <internalNodes>
            0 -1 173 1.0790886590257287e-03</internalNodes>
          <leafValues>
            3.0217739939689636e-01 -5.7407027482986450e-01</leafValues></_>
        <_>
          <internalNodes>
            0 -1 106 -2.3435081820935011e-03</internalNodes>
          <leafValues>
            7.2904598712921143e-01 -2.3555360734462738e-01</leafValues></_>
        <_>
          <internalNodes>
            0 -1 116 -3.7474832497537136e-03</internalNodes>
          <leafValues>
            7.2962301969528198e-01 -1.9844862818717957e-01</leafValues></_></weakClassifiers></_>
    <!-- stage 15 -->
    <_>
      <maxWeakCount>11</maxWeakCount>
      <stageThreshold>-3.9125421643257141e-01</stageThreshold>
      <weakClassifiers>
        <_>
          <internalNodes>
            0 -1 94 5.8095424901694059e-04</internalNodes>
          <leafValues>
            -2.1019108593463898e-01 6.9230771064758301e-01</leafValues></_>
        <_>
          <internalNodes>
            0 -1 42 -5.8817788958549500e-02</internalNodes>
          <leafValues>
            4.4474163651466370e-01 -3.9347219467163086e-01</leafValues></_>
        <_>
          <internalNodes>
            0 -1 111 -9.5424372702836990e-03</internalNodes>
          <leafValues>
            6.8172895908355713e-01 -2.2754232585430145e-01</leafValues></_>
        <_>
          <internalNodes>
            0 -1 145 1.0065080597996712e-02</internalNodes>
          <leafValues>
            -1.9537736475467682e-01 6.8877673149108887e-01</leafValues></_>
        <_>
          <internalNodes>
            0 -1 149 1.5220093540847301e-02</internalNodes>
          <leafValues>
            -2.4251933395862579e-01 6.2765055894851685e-01</leafValues></_>
        <_>
          <internalNodes>
            0 -1 152 -1.2852946529164910e-03</internalNodes>
          <leafValues>
            5.1459342241287231e-01 -2.8104692697525024e-01</leafValues></_>
        <_>
          <internalNodes>
            0 -1 143 2.2005918435752392e-03</internalNodes>
          <leafValues>
            2.1976067125797272e-01 -6.3912457227706909e-01</leafValues></_>
        <_>
          <internalNodes>
            0 -1 135 -4.8699127510190010e-03</internalNodes>
          <leafValues>
            -5.2607512474060059e-01 2.4485512077808380e-01</leafValues></_>
        <_>
          <internalNodes>
            0 -1 53 -1.8631529062986374e-02</internalNodes>
          <leafValues>
            6.8911617994308472e-01 -1.9831261038780212e-01</leafValues></_>
        <_>
          <internalNodes>
            0 -1 109 6.1820540577173233e-03</internalNodes>
          <leafValues>
            -1.4828115701675415e-01 8.6293667554855347e-01</leafValues></_>
        <_>
          <internalNodes>
            0 -1 125 1.5355568611994386e-03</internalNodes>
          <leafValues>
            2.0265914499759674e-01 -8.2879608869552612e-01</leafValues></_></weakClassifiers></_>
    <!-- stage 16 -->
    <_>
      <maxWeakCount>11</maxWeakCount>
      <stageThreshold>-7.5004190206527710e-01</stageThreshold>
      <weakClassifiers>
        <_>
          <internalNodes>
            0 -1 134 5.0382642075419426e-03</internalNodes>
          <leafValues>
            6.5408807992935181e-01 -5.1724135875701904e-01</leafValues></_>
        <_>
          <internalNodes>
            0 -1 7 -2.8271123766899109e-02</internalNodes>
          <leafValues>
            6.8940246105194092e-01 -1.8140208721160889e-01</leafValues></_>
        <_>
          <internalNodes>
            0 -1 70 -4.2173722758889198e-03</internalNodes>
          <leafValues>
            5.6980067491531372e-01 -2.7397492527961731e-01</leafValues></_>
        <_>
          <internalNodes>
            0 -1 123 -4.7293230891227722e-03</internalNodes>
          <leafValues>
            7.1556401252746582e-01 -2.0123989880084991e-01</leafValues></_>
        <_>
          <internalNodes>
            0 -1 121 1.3985211029648781e-02</internalNodes>
          <leafValues>
            -2.8223723173141479e-01 6.8706494569778442e-01</leafValues></_>
        <_>
          <internalNodes>
            0 -1 20 -2.0045742392539978e-02</internalNodes>
          <leafValues>
            6.5723097324371338e-01 -1.9814103841781616e-01</leafValues></_>
        <_>
          <internalNodes>
            0 -1 26 8.4358773892745376e-04</internalNodes>
          <leafValues>
            2.5697457790374756e-01 -6.3920700550079346e-01</leafValues></_>
        <_>
          <internalNodes>
            0 -1 163 -1.6081921756267548e-02</internalNodes>
          <leafValues>
            4.2203706502914429e-01 -3.2212299108505249e-01</leafValues></_>
        <_>
          <internalNodes>
            0 -1 30 -7.2393310256302357e-03</internalNodes>
          <leafValues>
            6.1524868011474609e-01 -1.8836376070976257e-01</leafValues></_>
        <_>
          <internalNodes>
            0 -1 76 9.4798463396728039e-04</internalNodes>
          <leafValues>
            -3.1954935193061829e-01 4.2122980952262878e-01</leafValues></_>
        <_>
          <internalNodes>
            0 -1 11 5.4626946803182364e-04</internalNodes>
          <leafValues>
            2.3280608654022217e-01 -5.8799225091934204e-01</leafValues></_></weakClassifiers></_>
    <!-- stage 17 -->
    <_>
      <maxWeakCount>11</maxWeakCount>
      <stageThreshold>-4.4244614243507385e-01</stageThreshold>
      <weakClassifiers>
        <_>
          <internalNodes>
            0 -1 89 -6.9004478864371777e-03</internalNodes>
          <leafValues>
            -5.3488373756408691e-01 6.5445023775100708e-01</leafValues></_>
        <_>
          <internalNodes>
            0 -1 3 -1.3726983219385147e-02</internalNodes>
          <leafValues>
            5.2588212490081787e-01 -3.3522275090217590e-01</leafValues></_>
        <_>
          <internalNodes>
            0 -1 21 -5.7210430502891541e-02</internalNodes>
          <leafValues>
            3.3247780799865723e-01 -5.7726210355758667e-01</leafValues></_>
        <_>
          <internalNodes>
            0 -1 157 2.8458669781684875e-02</internalNodes>
          <leafValues>
            -2.2262473404407501e-01 8.3747929334640503e-01</leafValues></_>
        <_>
          <internalNodes>
            0 -1 113 2.4328504223376513e-03</internalNodes>
          <leafValues>
            -3.3449426293373108e-01 4.3089136481285095e-01</leafValues></_>
        <_>
          <internalNodes>
            0 -1 159 1.3742650859057903e-02</internalNodes>
          <leafValues>
            -2.9492998123168945e-01 4.8467716574668884e-01</leafValues></_>
        <_>
          <internalNodes>
            0 -1 147 8.6117526516318321e-03</internalNodes>
          <leafValues>
            2.0625272393226624e-01 -7.6918774843215942e-01</leafValues></_>
        <_>
          <internalNodes>
            0 -1 85 2.4368078447878361e-03</internalNodes>
          <leafValues>
            -2.3351393640041351e-01 5.9829169511795044e-01</leafValues></_>
        <_>
          <internalNodes>
            0 -1 84 -2.7349281590431929e-03</internalNodes>
          <leafValues>
            4.7371530532836914e-01 -2.5904789566993713e-01</leafValues></_>
        <_>
          <internalNodes>
            0 -1 136 6.2153702601790428e-03</internalNodes>
          <leafValues>
            -2.0149758458137512e-01 5.5611979961395264e-01</leafValues></_>
        <_>
          <internalNodes>
            0 -1 131 9.8072998225688934e-03</internalNodes>
          <leafValues>
            -1.6215309500694275e-01 6.9723021984100342e-01</leafValues></_></weakClassifiers></_>
    <!-- stage 18 -->
    <_>
      <maxWeakCount>12</maxWeakCount>
      <stageThreshold>-4.2395776510238647e-01</stageThreshold>
      <weakClassifiers>
        <_>
          <internalNodes>
            0 -1 82 7.8496197238564491e-03</internalNodes>
          <leafValues>
            -1.8032786250114441e-01 7.1328669786453247e-01</leafValues></_>
        <_>
          <internalNodes>
            0 -1 0 -1.5556674916297197e-03</internalNodes>
          <leafValues>
            6.9833594560623169e-01 -1.9187678396701813e-01</leafValues></_>
        <_>
          <internalNodes>
            0 -1 141 3.1783054582774639e-03</internalNodes>
          <leafValues>
            -1.3607123494148254e-01 7.6427227258682251e-01</leafValues></_>
        <_>
          <internalNodes>
            0 -1 91 -1.0019927285611629e-03</internalNodes>
          <leafValues>
            2.9990482330322266e-01 -4.2789632081985474e-01</leafValues></_>
        <_>
          <internalNodes>
            0 -1 130 -2.0247999578714371e-02</internalNodes>
          <leafValues>
            8.9872974157333374e-01 -1.8279239535331726e-01</leafValues></_>
        <_>
          <internalNodes>
            0 -1 119 -2.1173916757106781e-02</internalNodes>
          <leafValues>
            6.9911938905715942e-01 -1.6296289861202240e-01</leafValues></_>
        <_>
          <internalNodes>
            0 -1 16 -1.5626042149960995e-03</internalNodes>
          <leafValues>
            4.2158028483390808e-01 -3.0185893177986145e-01</leafValues></_>
        <_>
          <internalNodes>
            0 -1 80 1.2433465570211411e-02</internalNodes>
          <leafValues>
            1.6631187498569489e-01 -8.0995422601699829e-01</leafValues></_>
        <_>
          <internalNodes>
            0 -1 154 8.8460789993405342e-03</internalNodes>
          <leafValues>
            -3.1590721011161804e-01 4.7482100129127502e-01</leafValues></_>
        <_>
          <internalNodes>
            0 -1 45 -1.3409311883151531e-02</internalNodes>
          <leafValues>
            2.1585676074028015e-01 -6.0993605852127075e-01</leafValues></_>
        <_>
          <internalNodes>
            0 -1 19 -1.7722710967063904e-02</internalNodes>
          <leafValues>
            8.6253756284713745e-01 -1.7219549417495728e-01</leafValues></_>
        <_>
          <internalNodes>
            0 -1 86 1.6856966540217400e-03</internalNodes>
          <leafValues>
            -1.3571365177631378e-01 7.3913955688476563e-01</leafValues></_></weakClassifiers></_>
    <!-- stage 19 -->
    <_>
      <maxWeakCount>11</maxWeakCount>
      <stageThreshold>-4.4872891902923584e-01</stageThreshold>
      <weakClassifiers>
        <_>
          <internalNodes>
            0 -1 43 2.8640195727348328e-02</internalNodes>
          <leafValues>
            6.4315354824066162e-01 -5.3246754407882690e-01</leafValues></_>
        <_>
          <internalNodes>
            0 -1 144 -1.7133228480815887e-02</internalNodes>
          <leafValues>
            7.8291094303131104e-01 -1.1893569678068161e-01</leafValues></_>
        <_>
          <internalNodes>
            0 -1 18 2.8696923982352018e-03</internalNodes>
          <leafValues>
            -2.3810221254825592e-01 5.5318343639373779e-01</leafValues></_>
        <_>
          <internalNodes>
            0 -1 31 1.4403210952877998e-02</internalNodes>
          <leafValues>
            -2.2799672186374664e-01 6.1882090568542480e-01</leafValues></_>
        <_>
          <internalNodes>
            0 -1 150 -1.8384668510407209e-03</internalNodes>
          <leafValues>
            6.2084269523620605e-01 -1.9192577898502350e-01</leafValues></_>
        <_>
          <internalNodes>
            0 -1 90 4.8902938142418861e-03</internalNodes>
          <leafValues>
            2.0455750823020935e-01 -7.6724267005920410e-01</leafValues></_>
        <_>
          <internalNodes>
            0 -1 139 -6.0766777023673058e-03</internalNodes>
          <leafValues>
            4.4172936677932739e-01 -3.3759090304374695e-01</leafValues></_>
        <_>
          <internalNodes>
            0 -1 105 9.9584506824612617e-03</internalNodes>
          <leafValues>
            -1.9024817645549774e-01 7.1704339981079102e-01</leafValues></_>
        <_>
          <internalNodes>
            0 -1 151 -7.1500600315630436e-03</internalNodes>
          <leafValues>
            -7.7185338735580444e-01 1.8252544105052948e-01</leafValues></_>
        <_>
          <internalNodes>
            0 -1 155 -2.5726757012307644e-03</internalNodes>
          <leafValues>
            6.2190115451812744e-01 -2.2807678580284119e-01</leafValues></_>
        <_>
          <internalNodes>
            0 -1 95 -1.7037884099408984e-03</internalNodes>
          <leafValues>
            3.3841437101364136e-01 -3.4107396006584167e-01</leafValues></_></weakClassifiers></_></stages>
  <features>
    <_>
      <rects>
        <_>
          0 0 2 6 -1.</_>
        <_>
          0 0 1 3 2.</_>
        <_>
          1 3 1 3 2.</_></rects>
      <tilted>0</tilted></_>
    <_>
      <rects>
        <_>
          0 0 3 19 -1.</_>
        <_>
          1 0 1 19 3.</_></rects>
      <tilted>0</tilted></_>
    <_>
      <rects>
        <_>
          0 1 3 21 -1.</_>
        <_>
          1 1 1 21 3.</_></rects>
      <tilted>0</tilted></_>
    <_>
      <rects>
        <_>
          0 1 3 23 -1.</_>
        <_>
          1 1 1 23 3.</_></rects>
      <tilted>0</tilted></_>
    <_>
      <rects>
        <_>
          0 1 9 3 -1.</_>
        <_>
          3 1 3 3 3.</_></rects>
      <tilted>0</tilted></_>
    <_>
      <rects>
        <_>
          0 3 3 11 -1.</_>
        <_>
          1 3 1 11 3.</_></rects>
      <tilted>0</tilted></_>
    <_>
      <rects>
        <_>
          0 3 3 17 -1.</_>
        <_>
          1 3 1 17 3.</_></rects>
      <tilted>0</tilted></_>
    <_>
      <rects>
        <_>
          0 4 3 14 -1.</_>
        <_>
          1 4 1 14 3.</_></rects>
      <tilted>0</tilted></_>
    <_>
      <rects>
        <_>
          0 4 3 19 -1.</_>
        <_>
          1 4 1 19 3.</_></rects>
      <tilted>0</tilted></_>
    <_>
      <rects>
        <_>
          0 5 3 12 -1.</_>
        <_>
          1 5 1 12 3.</_></rects>
      <tilted>0</tilted></_>
    <_>
      <rects>
        <_>
          0 5 3 13 -1.</_>
        <_>
          1 5 1 13 3.</_></rects>
      <tilted>0</tilted></_>
    <_>
      <rects>
        <_>
          0 6 1 3 -1.</_>
        <_>
          0 7 1 1 3.</_></rects>
      <tilted>0</tilted></_>
    <_>
      <rects>
        <_>
          0 6 3 9 -1.</_>
        <_>
          1 6 1 9 3.</_></rects>
      <tilted>0</tilted></_>
    <_>
      <rects>
        <_>
          0 8 2 12 -1.</_>
        <_>
          0 12 2 4 3.</_></rects>
      <tilted>0</tilted></_>
    <_>
      <rects>
        <_>
          0 8 4 6 -1.</_>
        <_>
          2 8 2 6 2.</_></rects>
      <tilted>0</tilted></_>
    <_>
      <rects>
        <_>
          0 11 22 2 -1.</_>
        <_>
          11 11 11 2 2.</_></rects>
      <tilted>0</tilted></_>
    <_>
      <rects>
        <_>
          0 12 2 5 -1.</_>
        <_>
          1 12 1 5 2.</_></rects>
      <tilted>0</tilted></_>
    <_>
      <rects>
        <_>
          0 13 18 11 -1.</_>
        <_>
          6 13 6 11 3.</_></rects>
      <tilted>0</tilted></_>
    <_>
      <rects>
        <_>
          0 16 2 8 -1.</_>
        <_>
          0 16 1 4 2.</_>
        <_>
          1 20 1 4 2.</_></rects>
      <tilted>0</tilted></_>
    <_>
      <rects>
        <_>
          0 19 14 4 -1.</_>
        <_>
          0 19 7 2 2.</_>
        <_>
          7 21 7 2 2.</_></rects>
      <tilted>0</tilted></_>
    <_>
      <rects>
        <_>
          1 0 3 21 -1.</_>
        <_>
          2 0 1 21 3.</_></rects>
      <tilted>0</tilted></_>
    <_>
      <rects>
        <_>
          1 1 21 10 -1.</_>
        <_>
          8 1 7 10 3.</_></rects>
      <tilted>0</tilted></_>
    <_>
      <rects>
        <_>
          1 2 3 19 -1.</_>
        <_>
          2 2 1 19 3.</_></rects>
      <tilted>0</tilted></_>
    <_>
      <rects>
        <_>
          1 2 9 2 -1.</_>
        <_>
          1 3 9 1 2.</_></rects>
      <tilted>0</tilted></_>
    <_>
      <rects>
        <_>
          1 4 3 14 -1.</_>
        <_>
          2 4 1 14 3.</_></rects>
      <tilted>0</tilted></_>
    <_>
      <rects>
        <_>
          1 5 9 17 -1.</_>
        <_>
          4 5 3 17 3.</_></rects>
      <tilted>0</tilted></_>
    <_>
      <rects>
        <_>
          2 0 3 2 -1.</_>
        <_>
          3 0 1 2 3.</_></rects>
      <tilted>0</tilted></_>
    <_>
      <rects>
        <_>
          2 0 22 12 -1.</_>
        <_>
          2 6 22 6 2.</_></rects>
      <tilted>0</tilted></_>
    <_>
      <rects>
        <_>
          2 1 12 4 -1.</_>
        <_>
          6 1 4 4 3.</_></rects>
      <tilted>0</tilted></_>
    <_>
      <rects>
        <_>
          2 3 3 14 -1.</_>
        <_>
          3 3 1 14 3.</_></rects>
      <tilted>0</tilted></_>
    <_>
      <rects>
        <_>
          2 4 3 9 -1.</_>
        <_>
          3 4 1 9 3.</_></rects>
      <tilted>0</tilted></_>
    <_>
      <rects>
        <_>
          2 4 5 6 -1.</_>
        <_>
          2 6 5 2 3.</_></rects>
      <tilted>0</tilted></_>
    <_>
      <rects>
        <_>
          2 4 18 11 -1.</_>
        <_>
          8 4 6 11 3.</_></rects>
      <tilted>0</tilted></_>
    <_>
      <rects>
        <_>
          2 5 3 10 -1.</_>
        <_>
          3 5 1 10 3.</_></rects>
      <tilted>0</tilted></_>
    <_>
      <rects>
        <_>
          2 5 3 15 -1.</_>
        <_>
          3 5 1 15 3.</_></rects>
      <tilted>0</tilted></_>
    <_>
      <rects>
        <_>
          2 5 18 6 -1.</_>
        <_>
          8 5 6 6 3.</_></rects>
      <tilted>0</tilted></_>
    <_>
      <rects>
        <_>
          2 5 12 12 -1.</_>
        <_>
          8 5 6 12 2.</_></rects>
      <tilted>0</tilted></_>
    <_>
      <rects>
        <_>
          2 9 3 13 -1.</_>
        <_>
          3 9 1 13 3.</_></rects>
      <tilted>0</tilted></_>
    <_>
      <rects>
        <_>
          3 1 12 13 -1.</_>
        <_>
          7 1 4 13 3.</_></rects>
      <tilted>0</tilted></_>
    <_>
      <rects>
        <_>
          3 4 18 7 -1.</_>
        <_>
          9 4 6 7 3.</_></rects>
      <tilted>0</tilted></_>
    <_>
      <rects>
        <_>
          3 4 18 14 -1.</_>
        <_>
          9 4 6 14 3.</_></rects>
      <tilted>0</tilted></_>
    <_>
      <rects>
        <_>
          3 4 18 16 -1.</_>
        <_>
          9 4 6 16 3.</_></rects>
      <tilted>0</tilted></_>
    <_>
      <rects>
        <_>
          3 5 15 19 -1.</_>
        <_>
          8 5 5 19 3.</_></rects>
      <tilted>0</tilted></_>
    <_>
      <rects>
        <_>
          3 13 15 9 -1.</_>
        <_>
          8 13 5 9 3.</_></rects>
      <tilted>0</tilted></_>
    <_>
      <rects>
        <_>
          4 0 8 10 -1.</_>
        <_>
          4 0 4 5 2.</_>
        <_>
          8 5 4 5 2.</_></rects>
      <tilted>0</tilted></_>
    <_>
      <rects>
        <_>
          4 1 12 20 -1.</_>
        <_>
          8 1 4 20 3.</_></rects>
      <tilted>0</tilted></_>
    <_>
      <rects>
        <_>
          4 6 3 14 -1.</_>
        <_>
          5 6 1 14 3.</_></rects>
      <tilted>0</tilted></_>
    <_>
      <rects>
        <_>
          4 7 3 11 -1.</_>
        <_>
          5 7 1 11 3.</_></rects>
      <tilted>0</tilted></_>
    <_>
      <rects>
        <_>
          4 12 22 3 -1.</_>
        <_>
          15 12 11 3 2.</_></rects>
      <tilted>0</tilted></_>
    <_>
      <rects>
        <_>
          4 17 5 2 -1.</_>
        <_>
          4 18 5 1 2.</_></rects>
      <tilted>0</tilted></_>
    <_>
      <rects>
        <_>
          5 1 3 2 -1.</_>
        <_>
          6 1 1 2 3.</_></rects>
      <tilted>0</tilted></_>
    <_>
      <rects>
        <_>
          5 1 20 4 -1.</_>
        <_>
          5 1 10 2 2.</_>
        <_>
          15 3 10 2 2.</_></rects>
      <tilted>0</tilted></_>
    <_>
      <rects>
        <_>
          5 5 3 15 -1.</_>
        <_>
          6 5 1 15 3.</_></rects>
      <tilted>0</tilted></_>
    <_>
      <rects>
        <_>
          5 7 3 13 -1.</_>
        <_>
          6 7 1 13 3.</_></rects>
      <tilted>0</tilted></_>
    <_>
      <rects>
        <_>
          5 8 9 6 -1.</_>
        <_>
          5 11 9 3 2.</_></rects>
      <tilted>0</tilted></_>
    <_>
      <rects>
        <_>
          5 9 3 15 -1.</_>
        <_>
          6 9 1 15 3.</_></rects>
      <tilted>0</tilted></_>
    <_>
      <rects>
        <_>
          5 11 3 5 -1.</_>
        <_>
          6 11 1 5 3.</_></rects>
      <tilted>0</tilted></_>
    <_>
      <rects>
        <_>
          5 14 15 6 -1.</_>
        <_>
          10 14 5 6 3.</_></rects>
      <tilted>0</tilted></_>
    <_>
      <rects>
        <_>
          5 21 6 3 -1.</_>
        <_>
          7 21 2 3 3.</_></rects>
      <tilted>0</tilted></_>
    <_>
      <rects>
        <_>
          6 2 4 6 -1.</_>
        <_>
          6 4 4 2 3.</_></rects>
      <tilted>0</tilted></_>
    <_>
      <rects>
        <_>
          6 9 6 4 -1.</_>
        <_>
          8 9 2 4 3.</_></rects>
      <tilted>0</tilted></_>
    <_>
      <rects>
        <_>
          7 0 3 5 -1.</_>
        <_>
          8 0 1 5 3.</_></rects>
      <tilted>0</tilted></_>
    <_>
      <rects>
        <_>
          7 1 3 2 -1.</_>
        <_>
          8 1 1 2 3.</_></rects>
      <tilted>0</tilted></_>
    <_>
      <rects>
        <_>
          7 7 3 7 -1.</_>
        <_>
          8 7 1 7 3.</_></rects>
      <tilted>0</tilted></_>
    <_>
      <rects>
        <_>
          7 20 12 4 -1.</_>
        <_>
          11 20 4 4 3.</_></rects>
      <tilted>0</tilted></_>
    <_>
      <rects>
        <_>
          7 22 6 2 -1.</_>
        <_>
          9 22 2 2 3.</_></rects>
      <tilted>0</tilted></_>
    <_>
      <rects>
        <_>
          8 1 6 6 -1.</_>
        <_>
          10 1 2 6 3.</_></rects>
      <tilted>0</tilted></_>
    <_>
      <rects>
        <_>
          8 5 4 10 -1.</_>
        <_>
          10 5 2 10 2.</_></rects>
      <tilted>0</tilted></_>
    <_>
      <rects>
        <_>
          8 9 7 4 -1.</_>
        <_>
          8 11 7 2 2.</_></rects>
      <tilted>0</tilted></_>
    <_>
      <rects>
        <_>
          8 11 6 6 -1.</_>
        <_>
          8 11 3 3 2.</_>
        <_>
          11 14 3 3 2.</_></rects>
      <tilted>0</tilted></_>
    <_>
      <rects>
        <_>
          8 12 4 4 -1.</_>
        <_>
          8 12 2 2 2.</_>
        <_>
          10 14 2 2 2.</_></rects>
      <tilted>0</tilted></_>
    <_>
      <rects>
        <_>
          9 0 9 7 -1.</_>
        <_>
          12 0 3 7 3.</_></rects>
      <tilted>0</tilted></_>
    <_>
      <rects>
        <_>
          9 1 12 7 -1.</_>
        <_>
          13 1 4 7 3.</_></rects>
      <tilted>0</tilted></_>
    <_>
      <rects>
        <_>
          9 3 6 12 -1.</_>
        <_>
          11 3 2 12 3.</_></rects>
      <tilted>0</tilted></_>
    <_>
      <rects>
        <_>
          9 6 4 8 -1.</_>
        <_>
          11 6 2 8 2.</_></rects>
      <tilted>0</tilted></_>
    <_>
      <rects>
        <_>
          9 7 2 8 -1.</_>
        <_>
          10 7 1 8 2.</_></rects>
      <tilted>0</tilted></_>
    <_>
      <rects>
        <_>
          9 7 6 4 -1.</_>
        <_>
          9 7 3 2 2.</_>
        <_>
          12 9 3 2 2.</_></rects>
      <tilted>0</tilted></_>
    <_>
      <rects>
        <_>
          9 7 12 4 -1.</_>
        <_>
          15 7 6 4 2.</_></rects>
      <tilted>0</tilted></_>
    <_>
      <rects>
        <_>
          9 7 6 12 -1.</_>
        <_>
          9 11 6 4 3.</_></rects>
      <tilted>0</tilted></_>
    <_>
      <rects>
        <_>
          9 11 6 3 -1.</_>
        <_>
          11 11 2 3 3.</_></rects>
      <tilted>0</tilted></_>
    <_>
      <rects>
        <_>
          9 14 9 4 -1.</_>
        <_>
          12 14 3 4 3.</_></rects>
      <tilted>0</tilted></_>
    <_>
      <rects>
        <_>
          9 15 9 8 -1.</_>
        <_>
          12 15 3 8 3.</_></rects>
      <tilted>0</tilted></_>
    <_>
      <rects>
        <_>
          10 6 5 8 -1.</_>
        <_>
          10 10 5 4 2.</_></rects>
      <tilted>0</tilted></_>
    <_>
      <rects>
        <_>
          10 7 8 8 -1.</_>
        <_>
          10 7 4 4 2.</_>
        <_>
          14 11 4 4 2.</_></rects>
      <tilted>0</tilted></_>
    <_>
      <rects>
        <_>
          10 9 2 8 -1.</_>
        <_>
          10 9 1 4 2.</_>
        <_>
          11 13 1 4 2.</_></rects>
      <tilted>0</tilted></_>
    <_>
      <rects>
        <_>
          10 11 2 4 -1.</_>
        <_>
          10 11 1 2 2.</_>
        <_>
          11 13 1 2 2.</_></rects>
      <tilted>0</tilted></_>
    <_>
      <rects>
        <_>
          10 13 2 4 -1.</_>
        <_>
          10 13 1 2 2.</_>
        <_>
          11 15 1 2 2.</_></rects>
      <tilted>0</tilted></_>
    <_>
      <rects>
        <_>
          10 15 3 1 -1.</_>
        <_>
          11 15 1 1 3.</_></rects>
      <tilted>0</tilted></_>
    <_>
      <rects>
        <_>
          10 19 3 4 -1.</_>
        <_>
          11 19 1 4 3.</_></rects>
      <tilted>0</tilted></_>
    <_>
      <rects>
        <_>
          11 0 6 4 -1.</_>
        <_>
          13 0 2 4 3.</_></rects>
      <tilted>0</tilted></_>
    <_>
      <rects>
        <_>
          11 2 6 4 -1.</_>
        <_>
          13 2 2 4 3.</_></rects>
      <tilted>0</tilted></_>
    <_>
      <rects>
        <_>
          11 4 4 14 -1.</_>
        <_>
          11 4 2 7 2.</_>
        <_>
          13 11 2 7 2.</_></rects>
      <tilted>0</tilted></_>
    <_>
      <rects>
        <_>
          11 6 2 8 -1.</_>
        <_>
          11 10 2 4 2.</_></rects>
      <tilted>0</tilted></_>
    <_>
      <rects>
        <_>
          11 6 3 8 -1.</_>
        <_>
          11 10 3 4 2.</_></rects>
      <tilted>0</tilted></_>
    <_>
      <rects>
        <_>
          11 6 6 12 -1.</_>
        <_>
          11 10 6 4 3.</_></rects>
      <tilted>0</tilted></_>
    <_>
      <rects>
        <_>
          11 10 3 6 -1.</_>
        <_>
          11 13 3 3 2.</_></rects>
      <tilted>0</tilted></_>
    <_>
      <rects>
        <_>
          11 10 4 2 -1.</_>
        <_>
          11 11 4 1 2.</_></rects>
      <tilted>0</tilted></_>
    <_>
      <rects>
        <_>
          11 11 2 8 -1.</_>
        <_>
          11 15 2 4 2.</_></rects>
      <tilted>0</tilted></_>
    <_>
      <rects>
        <_>
          11 11 3 8 -1.</_>
        <_>
          11 15 3 4 2.</_></rects>
      <tilted>0</tilted></_>
    <_>
      <rects>
        <_>
          11 12 2 4 -1.</_>
        <_>
          11 12 1 2 2.</_>
        <_>
          12 14 1 2 2.</_></rects>
      <tilted>0</tilted></_>
    <_>
      <rects>
        <_>
          11 13 2 4 -1.</_>
        <_>
          11 13 1 2 2.</_>
        <_>
          12 15 1 2 2.</_></rects>
      <tilted>0</tilted></_>
    <_>
      <rects>
        <_>
          11 14 3 1 -1.</_>
        <_>
          12 14 1 1 3.</_></rects>
      <tilted>0</tilted></_>
    <_>
      <rects>
        <_>
          11 15 2 2 -1.</_>
        <_>
          11 15 1 1 2.</_>
        <_>
          12 16 1 1 2.</_></rects>
      <tilted>0</tilted></_>
    <_>
      <rects>
        <_>
          11 15 2 4 -1.</_>
        <_>
          11 15 1 2 2.</_>
        <_>
          12 17 1 2 2.</_></rects>
      <tilted>0</tilted></_>
    <_>
      <rects>
        <_>
          11 22 3 2 -1.</_>
        <_>
          12 22 1 2 3.</_></rects>
      <tilted>0</tilted></_>
    <_>
      <rects>
        <_>
          12 10 3 5 -1.</_>
        <_>
          13 10 1 5 3.</_></rects>
      <tilted>0</tilted></_>
    <_>
      <rects>
        <_>
          12 12 3 1 -1.</_>
        <_>
          13 12 1 1 3.</_></rects>
      <tilted>0</tilted></_>
    <_>
      <rects>
        <_>
          12 15 3 1 -1.</_>
        <_>
          13 15 1 1 3.</_></rects>
      <tilted>0</tilted></_>
    <_>
      <rects>
        <_>
          13 0 3 15 -1.</_>
        <_>
          14 0 1 15 3.</_></rects>
      <tilted>0</tilted></_>
    <_>
      <rects>
        <_>
          13 3 10 2 -1.</_>
        <_>
          13 3 5 1 2.</_>
        <_>
          18 4 5 1 2.</_></rects>
      <tilted>0</tilted></_>
    <_>
      <rects>
        <_>
          13 5 12 18 -1.</_>
        <_>
          17 5 4 18 3.</_></rects>
      <tilted>0</tilted></_>
    <_>
      <rects>
        <_>
          13 7 2 13 -1.</_>
        <_>
          14 7 1 13 2.</_></rects>
      <tilted>0</tilted></_>
    <_>
      <rects>
        <_>
          13 8 3 5 -1.</_>
        <_>
          14 8 1 5 3.</_></rects>
      <tilted>0</tilted></_>
    <_>
      <rects>
        <_>
          13 9 4 10 -1.</_>
        <_>
          13 9 2 5 2.</_>
        <_>
          15 14 2 5 2.</_></rects>
      <tilted>0</tilted></_>
    <_>
      <rects>
        <_>
          13 10 3 4 -1.</_>
        <_>
          14 10 1 4 3.</_></rects>
      <tilted>0</tilted></_>
    <_>
      <rects>
        <_>
          13 10 3 8 -1.</_>
        <_>
          14 10 1 8 3.</_></rects>
      <tilted>0</tilted></_>
    <_>
      <rects>
        <_>
          13 13 2 4 -1.</_>
        <_>
          14 13 1 4 2.</_></rects>
      <tilted>0</tilted></_>
    <_>
      <rects>
        <_>
          13 13 3 4 -1.</_>
        <_>
          14 13 1 4 3.</_></rects>
      <tilted>0</tilted></_>
    <_>
      <rects>
        <_>
          13 16 3 1 -1.</_>
        <_>
          14 16 1 1 3.</_></rects>
      <tilted>0</tilted></_>
    <_>
      <rects>
        <_>
          14 4 3 16 -1.</_>
        <_>
          15 4 1 16 3.</_></rects>
      <tilted>0</tilted></_>
    <_>
      <rects>
        <_>
          14 6 3 11 -1.</_>
        <_>
          15 6 1 11 3.</_></rects>
      <tilted>0</tilted></_>
    <_>
      <rects>
        <_>
          14 7 3 11 -1.</_>
        <_>
          15 7 1 11 3.</_></rects>
      <tilted>0</tilted></_>
    <_>
      <rects>
        <_>
          14 10 3 7 -1.</_>
        <_>
          15 10 1 7 3.</_></rects>
      <tilted>0</tilted></_>
    <_>
      <rects>
        <_>
          14 12 3 2 -1.</_>
        <_>
          15 12 1 2 3.</_></rects>
      <tilted>0</tilted></_>
    <_>
      <rects>
        <_>
          14 12 3 3 -1.</_>
        <_>
          15 12 1 3 3.</_></rects>
      <tilted>0</tilted></_>
    <_>
      <rects>
        <_>
          14 21 3 2 -1.</_>
        <_>
          15 21 1 2 3.</_></rects>
      <tilted>0</tilted></_>
    <_>
      <rects>
        <_>
          14 21 3 3 -1.</_>
        <_>
          15 21 1 3 3.</_></rects>
      <tilted>0</tilted></_>
    <_>
      <rects>
        <_>
          15 0 3 18 -1.</_>
        <_>
          16 0 1 18 3.</_></rects>
      <tilted>0</tilted></_>
    <_>
      <rects>
        <_>
          15 1 3 21 -1.</_>
        <_>
          16 1 1 21 3.</_></rects>
      <tilted>0</tilted></_>
    <_>
      <rects>
        <_>
          15 6 3 8 -1.</_>
        <_>
          16 6 1 8 3.</_></rects>
      <tilted>0</tilted></_>
    <_>
      <rects>
        <_>
          15 7 3 8 -1.</_>
        <_>
          16 7 1 8 3.</_></rects>
      <tilted>0</tilted></_>
    <_>
      <rects>
        <_>
          15 9 3 4 -1.</_>
        <_>
          16 9 1 4 3.</_></rects>
      <tilted>0</tilted></_>
    <_>
      <rects>
        <_>
          15 10 3 4 -1.</_>
        <_>
          16 10 1 4 3.</_></rects>
      <tilted>0</tilted></_>
    <_>
      <rects>
        <_>
          16 0 3 1 -1.</_>
        <_>
          17 0 1 1 3.</_></rects>
      <tilted>0</tilted></_>
    <_>
      <rects>
        <_>
          16 0 6 3 -1.</_>
        <_>
          18 0 2 3 3.</_></rects>
      <tilted>0</tilted></_>
    <_>
      <rects>
        <_>
          16 0 9 23 -1.</_>
        <_>
          19 0 3 23 3.</_></rects>
      <tilted>0</tilted></_>
    <_>
      <rects>
        <_>
          16 5 3 7 -1.</_>
        <_>
          17 5 1 7 3.</_></rects>
      <tilted>0</tilted></_>
    <_>
      <rects>
        <_>
          16 5 3 13 -1.</_>
        <_>
          17 5 1 13 3.</_></rects>
      <tilted>0</tilted></_>
    <_>
      <rects>
        <_>
          16 10 3 5 -1.</_>
        <_>
          17 10 1 5 3.</_></rects>
      <tilted>0</tilted></_>
    <_>
      <rects>
        <_>
          17 3 8 8 -1.</_>
        <_>
          17 3 4 4 2.</_>
        <_>
          21 7 4 4 2.</_></rects>
      <tilted>0</tilted></_>
    <_>
      <rects>
        <_>
          17 6 3 8 -1.</_>
        <_>
          18 6 1 8 3.</_></rects>
      <tilted>0</tilted></_>
    <_>
      <rects>
        <_>
          17 11 3 1 -1.</_>
        <_>
          18 11 1 1 3.</_></rects>
      <tilted>0</tilted></_>
    <_>
      <rects>
        <_>
          18 0 3 2 -1.</_>
        <_>
          19 0 1 2 3.</_></rects>
      <tilted>0</tilted></_>
    <_>
      <rects>
        <_>
          18 0 6 2 -1.</_>
        <_>
          20 0 2 2 3.</_></rects>
      <tilted>0</tilted></_>
    <_>
      <rects>
        <_>
          18 4 3 13 -1.</_>
        <_>
          19 4 1 13 3.</_></rects>
      <tilted>0</tilted></_>
    <_>
      <rects>
        <_>
          18 14 4 6 -1.</_>
        <_>
          18 16 4 2 3.</_></rects>
      <tilted>0</tilted></_>
    <_>
      <rects>
        <_>
          18 16 2 4 -1.</_>
        <_>
          18 18 2 2 2.</_></rects>
      <tilted>0</tilted></_>
    <_>
      <rects>
        <_>
          19 0 6 4 -1.</_>
        <_>
          21 0 2 4 3.</_></rects>
      <tilted>0</tilted></_>
    <_>
      <rects>
        <_>
          19 3 3 12 -1.</_>
        <_>
          20 3 1 12 3.</_></rects>
      <tilted>0</tilted></_>
    <_>
      <rects>
        <_>
          19 4 3 17 -1.</_>
        <_>
          20 4 1 17 3.</_></rects>
      <tilted>0</tilted></_>
    <_>
      <rects>
        <_>
          19 12 3 1 -1.</_>
        <_>
          20 12 1 1 3.</_></rects>
      <tilted>0</tilted></_>
    <_>
      <rects>
        <_>
          19 19 6 5 -1.</_>
        <_>
          21 19 2 5 3.</_></rects>
      <tilted>0</tilted></_>
    <_>
      <rects>
        <_>
          20 3 2 3 -1.</_>
        <_>
          20 4 2 1 3.</_></rects>
      <tilted>0</tilted></_>
    <_>
      <rects>
        <_>
          20 5 3 12 -1.</_>
        <_>
          21 5 1 12 3.</_></rects>
      <tilted>0</tilted></_>
    <_>
      <rects>
        <_>
          20 15 6 8 -1.</_>
        <_>
          20 15 3 4 2.</_>
        <_>
          23 19 3 4 2.</_></rects>
      <tilted>0</tilted></_>
    <_>
      <rects>
        <_>
          20 19 2 3 -1.</_>
        <_>
          20 20 2 1 3.</_></rects>
      <tilted>0</tilted></_>
    <_>
      <rects>
        <_>
          21 2 3 17 -1.</_>
        <_>
          22 2 1 17 3.</_></rects>
      <tilted>0</tilted></_>
    <_>
      <rects>
        <_>
          21 4 3 18 -1.</_>
        <_>
          22 4 1 18 3.</_></rects>
      <tilted>0</tilted></_>
    <_>
      <rects>
        <_>
          21 8 3 10 -1.</_>
        <_>
          22 8 1 10 3.</_></rects>
      <tilted>0</tilted></_>
    <_>
      <rects>
        <_>
          22 1 3 18 -1.</_>
        <_>
          23 1 1 18 3.</_></rects>
      <tilted>0</tilted></_>
    <_>
      <rects>
        <_>
          22 1 2 20 -1.</_>
        <_>
          23 1 1 20 2.</_></rects>
      <tilted>0</tilted></_>
    <_>
      <rects>
        <_>
          22 3 3 21 -1.</_>
        <_>
          23 3 1 21 3.</_></rects>
      <tilted>0</tilted></_>
    <_>
      <rects>
        <_>
          22 6 4 12 -1.</_>
        <_>
          24 6 2 12 2.</_></rects>
      <tilted>0</tilted></_>
    <_>
      <rects>
        <_>
          22 7 4 13 -1.</_>
        <_>
          24 7 2 13 2.</_></rects>
      <tilted>0</tilted></_>
    <_>
      <rects>
        <_>
          23 1 3 18 -1.</_>
        <_>
          24 1 1 18 3.</_></rects>
      <tilted>0</tilted></_>
    <_>
      <rects>
        <_>
          23 1 3 22 -1.</_>
        <_>
          24 1 1 22 3.</_></rects>
      <tilted>0</tilted></_>
    <_>
      <rects>
        <_>
          23 3 3 7 -1.</_>
        <_>
          24 3 1 7 3.</_></rects>
      <tilted>0</tilted></_>
    <_>
      <rects>
        <_>
          23 3 3 16 -1.</_>
        <_>
          24 3 1 16 3.</_></rects>
      <tilted>0</tilted></_>
    <_>
      <rects>
        <_>
          23 3 3 17 -1.</_>
        <_>
          24 3 1 17 3.</_></rects>
      <tilted>0</tilted></_>
    <_>
      <rects>
        <_>
          23 3 3 19 -1.</_>
        <_>
          24 3 1 19 3.</_></rects>
      <tilted>0</tilted></_>
    <_>
      <rects>
        <_>
          23 4 3 12 -1.</_>
        <_>
          24 4 1 12 3.</_></rects>
      <tilted>0</tilted></_>
    <_>
      <rects>
        <_>
          23 4 3 16 -1.</_>
        <_>
          24 4 1 16 3.</_></rects>
      <tilted>0</tilted></_>
    <_>
      <rects>
        <_>
          25 7 1 9 -1.</_>
        <_>
          25 10 1 3 3.</_></rects>
      <tilted>0</tilted></_>
    <_>
      <rects>
        <_>
          25 12 1 6 -1.</_>
        <_>
          25 14 1 2 3.</_></rects>
      <tilted>0</tilted></_>
    <_>
      <rects>
        <_>
          25 13 1 4 -1.</_>
        <_>
          25 15 1 2 2.</_></rects>
      <tilted>0</tilted></_></features></cascade>
</opencv_storage>
