<?xml version="1.0"?>
<opencv_storage>
<cascade>
  <stageType>BOOST</stageType>
  <featureType>HAAR</featureType>
  <height>15</height>
  <width>30</width>
  <stageParams>
    <boostType>GAB</boostType>
    <minHitRate>9.9500000476837158e-01</minHitRate>
    <maxFalseAlarm>4.9000000953674316e-01</maxFalseAlarm>
    <weightTrimRate>9.4999999999999996e-01</weightTrimRate>
    <maxDepth>1</maxDepth>
    <maxWeakCount>100</maxWeakCount></stageParams>
  <featureParams>
    <maxCatCount>0</maxCatCount>
    <featSize>1</featSize>
    <mode>BASIC</mode></featureParams>
  <stageNum>20</stageNum>
  <stages>
    <!-- stage 0 -->
    <_>
      <maxWeakCount>5</maxWeakCount>
      <stageThreshold>-1.5761137008666992e+00</stageThreshold>
      <weakClassifiers>
        <_>
          <internalNodes>
            0 -1 28 -1.4058568514883518e-02</internalNodes>
          <leafValues>
            7.9439252614974976e-01 -7.8306877613067627e-01</leafValues></_>
        <_>
          <internalNodes>
            0 -1 106 1.6328703612089157e-02</internalNodes>
          <leafValues>
            -5.5503219366073608e-01 7.7609348297119141e-01</leafValues></_>
        <_>
          <internalNodes>
            0 -1 56 1.2989476090297103e-03</internalNodes>
          <leafValues>
            -5.1709145307540894e-01 6.0600864887237549e-01</leafValues></_>
        <_>
          <internalNodes>
            0 -1 47 -6.6764093935489655e-03</internalNodes>
          <leafValues>
            4.0866455435752869e-01 -6.8077480792999268e-01</leafValues></_>
        <_>
          <internalNodes>
            0 -1 199 -9.0616913512349129e-03</internalNodes>
          <leafValues>
            7.7318608760833740e-01 -3.7127214670181274e-01</leafValues></_></weakClassifiers></_>
    <!-- stage 1 -->
    <_>
      <maxWeakCount>7</maxWeakCount>
      <stageThreshold>-1.3993761539459229e+00</stageThreshold>
      <weakClassifiers>
        <_>
          <internalNodes>
            0 -1 101 1.0250097140669823e-02</internalNodes>
          <leafValues>
            -4.7346073389053345e-01 7.9554390907287598e-01</leafValues></_>
        <_>
          <internalNodes>
            0 -1 26 1.3732729479670525e-02</internalNodes>
          <leafValues>
            -5.3962159156799316e-01 5.8965021371841431e-01</leafValues></_>
        <_>
          <internalNodes>
            0 -1 16 -1.1262316256761551e-02</internalNodes>
          <leafValues>
            8.6336296796798706e-01 -3.1633359193801880e-01</leafValues></_>
        <_>
          <internalNodes>
            0 -1 8 -5.4846601560711861e-03</internalNodes>
          <leafValues>
            6.7599731683731079e-01 -4.4312143325805664e-01</leafValues></_>
        <_>
          <internalNodes>
            0 -1 98 2.6567928493022919e-02</internalNodes>
          <leafValues>
            -3.4810617566108704e-01 6.4992487430572510e-01</leafValues></_>
        <_>
          <internalNodes>
            0 -1 180 -1.2626003473997116e-02</internalNodes>
          <leafValues>
            9.1394954919815063e-01 -2.5997146964073181e-01</leafValues></_>
        <_>
          <internalNodes>
            0 -1 195 6.1298445798456669e-03</internalNodes>
          <leafValues>
            -1.9845777750015259e-01 8.1045365333557129e-01</leafValues></_></weakClassifiers></_>
    <!-- stage 2 -->
    <_>
      <maxWeakCount>7</maxWeakCount>
      <stageThreshold>-6.8622863292694092e-01</stageThreshold>
      <weakClassifiers>
        <_>
          <internalNodes>
            0 -1 41 -5.3374893963336945e-02</internalNodes>
          <leafValues>
            6.6966289281845093e-01 -6.1627906560897827e-01</leafValues></_>
        <_>
          <internalNodes>
            0 -1 91 1.3425981160253286e-03</internalNodes>
          <leafValues>
            -6.5551793575286865e-01 5.3966706991195679e-01</leafValues></_>
        <_>
          <internalNodes>
            0 -1 204 3.2181572169065475e-03</internalNodes>
          <leafValues>
            -3.8404938578605652e-01 6.6444492340087891e-01</leafValues></_>
        <_>
          <internalNodes>
            0 -1 127 1.5130008105188608e-03</internalNodes>
          <leafValues>
            -4.7188943624496460e-01 4.8816320300102234e-01</leafValues></_>
        <_>
          <internalNodes>
            0 -1 193 -1.5243456698954105e-02</internalNodes>
          <leafValues>
            5.4708361625671387e-01 -4.7240772843360901e-01</leafValues></_>
        <_>
          <internalNodes>
            0 -1 40 1.2111330032348633e-01</internalNodes>
          <leafValues>
            2.5070080161094666e-01 -9.1250580549240112e-01</leafValues></_>
        <_>
          <internalNodes>
            0 -1 17 -1.0747721418738365e-02</internalNodes>
          <leafValues>
            6.5440922975540161e-01 -3.1632989645004272e-01</leafValues></_></weakClassifiers></_>
    <!-- stage 3 -->
    <_>
      <maxWeakCount>9</maxWeakCount>
      <stageThreshold>-1.5082609653472900e+00</stageThreshold>
      <weakClassifiers>
        <_>
          <internalNodes>
            0 -1 85 3.3463366329669952e-02</internalNodes>
          <leafValues>
            -4.9597856402397156e-01 6.6085946559906006e-01</leafValues></_>
        <_>
          <internalNodes>
            0 -1 21 7.6033743098378181e-03</internalNodes>
          <leafValues>
            -4.2259922623634338e-01 6.3892132043838501e-01</leafValues></_>
        <_>
          <internalNodes>
            0 -1 2 -1.4874688349664211e-02</internalNodes>
          <leafValues>
            7.6594060659408569e-01 -2.8552573919296265e-01</leafValues></_>
        <_>
          <internalNodes>
            0 -1 167 9.5003917813301086e-03</internalNodes>
          <leafValues>
            -2.6165863871574402e-01 8.1663739681243896e-01</leafValues></_>
        <_>
          <internalNodes>
            0 -1 162 4.9231890588998795e-03</internalNodes>
          <leafValues>
            -3.6266583204269409e-01 6.9241124391555786e-01</leafValues></_>
        <_>
          <internalNodes>
            0 -1 141 -1.8868241459131241e-03</internalNodes>
          <leafValues>
            7.0515429973602295e-01 -2.3455148935317993e-01</leafValues></_>
        <_>
          <internalNodes>
            0 -1 132 -6.6306991502642632e-03</internalNodes>
          <leafValues>
            8.8398915529251099e-01 -1.8578667938709259e-01</leafValues></_>
        <_>
          <internalNodes>
            0 -1 55 1.1875901371240616e-02</internalNodes>
          <leafValues>
            -1.7851680517196655e-01 8.1660294532775879e-01</leafValues></_>
        <_>
          <internalNodes>
            0 -1 61 1.1635392904281616e-02</internalNodes>
          <leafValues>
            -2.3781602084636688e-01 7.8185468912124634e-01</leafValues></_></weakClassifiers></_>
    <!-- stage 4 -->
    <_>
      <maxWeakCount>7</maxWeakCount>
      <stageThreshold>-5.4325270652770996e-01</stageThreshold>
      <weakClassifiers>
        <_>
          <internalNodes>
            0 -1 94 4.4092582538723946e-03</internalNodes>
          <leafValues>
            -3.6086955666542053e-01 7.1059429645538330e-01</leafValues></_>
        <_>
          <internalNodes>
            0 -1 196 1.0663137771189213e-02</internalNodes>
          <leafValues>
            -2.4998860061168671e-01 7.7403920888900757e-01</leafValues></_>
        <_>
          <internalNodes>
            0 -1 192 8.4358286112546921e-03</internalNodes>
          <leafValues>
            -2.2956091165542603e-01 7.7521592378616333e-01</leafValues></_>
        <_>
          <internalNodes>
            0 -1 188 9.0143922716379166e-03</internalNodes>
          <leafValues>
            -2.7076354622840881e-01 7.8666412830352783e-01</leafValues></_>
        <_>
          <internalNodes>
            0 -1 121 1.2557066511362791e-03</internalNodes>
          <leafValues>
            -4.8427096009254456e-01 4.2071303725242615e-01</leafValues></_>
        <_>
          <internalNodes>
            0 -1 201 -1.1171361431479454e-02</internalNodes>
          <leafValues>
            6.1435669660568237e-01 -3.2030972838401794e-01</leafValues></_>
        <_>
          <internalNodes>
            0 -1 107 2.5782100856304169e-03</internalNodes>
          <leafValues>
            -4.3448007106781006e-01 4.6752664446830750e-01</leafValues></_></weakClassifiers></_>
    <!-- stage 5 -->
    <_>
      <maxWeakCount>8</maxWeakCount>
      <stageThreshold>-7.2304636240005493e-01</stageThreshold>
      <weakClassifiers>
        <_>
          <internalNodes>
            0 -1 42 -9.4392642378807068e-02</internalNodes>
          <leafValues>
            7.0780855417251587e-01 -4.0454545617103577e-01</leafValues></_>
        <_>
          <internalNodes>
            0 -1 18 2.2871941328048706e-02</internalNodes>
          <leafValues>
            -2.5985592603683472e-01 6.8657159805297852e-01</leafValues></_>
        <_>
          <internalNodes>
            0 -1 143 -2.0991158671677113e-03</internalNodes>
          <leafValues>
            -9.0124285221099854e-01 2.4975614249706268e-01</leafValues></_>
        <_>
          <internalNodes>
            0 -1 48 -4.6630073338747025e-02</internalNodes>
          <leafValues>
            5.1301020383834839e-01 -3.8096302747726440e-01</leafValues></_>
        <_>
          <internalNodes>
            0 -1 118 -5.4437858052551746e-03</internalNodes>
          <leafValues>
            -8.9559745788574219e-01 1.9591484963893890e-01</leafValues></_>
        <_>
          <internalNodes>
            0 -1 76 3.2591626048088074e-02</internalNodes>
          <leafValues>
            -3.2738384604454041e-01 7.2244250774383545e-01</leafValues></_>
        <_>
          <internalNodes>
            0 -1 128 -2.4241656064987183e-03</internalNodes>
          <leafValues>
            4.2635715007781982e-01 -4.0849298238754272e-01</leafValues></_>
        <_>
          <internalNodes>
            0 -1 33 -1.5303521417081356e-02</internalNodes>
          <leafValues>
            8.0924022197723389e-01 -2.2232626378536224e-01</leafValues></_></weakClassifiers></_>
    <!-- stage 6 -->
    <_>
      <maxWeakCount>10</maxWeakCount>
      <stageThreshold>-6.3679790496826172e-01</stageThreshold>
      <weakClassifiers>
        <_>
          <internalNodes>
            0 -1 60 -6.6219018772244453e-03</internalNodes>
          <leafValues>
            5.3593426942825317e-01 -5.3076922893524170e-01</leafValues></_>
        <_>
          <internalNodes>
            0 -1 7 -1.1212956160306931e-02</internalNodes>
          <leafValues>
            6.4102876186370850e-01 -3.0084726214408875e-01</leafValues></_>
        <_>
          <internalNodes>
            0 -1 109 -1.0753190144896507e-02</internalNodes>
          <leafValues>
            4.7540345788002014e-01 -4.2218378186225891e-01</leafValues></_>
        <_>
          <internalNodes>
            0 -1 19 -1.5154085122048855e-02</internalNodes>
          <leafValues>
            6.0744696855545044e-01 -3.0150765180587769e-01</leafValues></_>
        <_>
          <internalNodes>
            0 -1 79 4.2133620008826256e-03</internalNodes>
          <leafValues>
            2.5433832406997681e-01 -8.5211306810379028e-01</leafValues></_>
        <_>
          <internalNodes>
            0 -1 79 -5.9954226016998291e-03</internalNodes>
          <leafValues>
            -8.7832182645797729e-01 1.3635241985321045e-01</leafValues></_>
        <_>
          <internalNodes>
            0 -1 64 1.7107506282627583e-03</internalNodes>
          <leafValues>
            1.4959232509136200e-01 -8.8066154718399048e-01</leafValues></_>
        <_>
          <internalNodes>
            0 -1 202 -1.9415065646171570e-02</internalNodes>
          <leafValues>
            6.7916274070739746e-01 -2.7522891759872437e-01</leafValues></_>
        <_>
          <internalNodes>
            0 -1 80 -2.0452048629522324e-02</internalNodes>
          <leafValues>
            -8.6273127794265747e-01 1.9551546871662140e-01</leafValues></_>
        <_>
          <internalNodes>
            0 -1 148 -3.5089971497654915e-03</internalNodes>
          <leafValues>
            6.1404323577880859e-01 -2.7859964966773987e-01</leafValues></_></weakClassifiers></_>
    <!-- stage 7 -->
    <_>
      <maxWeakCount>8</maxWeakCount>
      <stageThreshold>-7.3603457212448120e-01</stageThreshold>
      <weakClassifiers>
        <_>
          <internalNodes>
            0 -1 25 1.8845148384571075e-02</internalNodes>
          <leafValues>
            2.4813895579427481e-03 8.9252334833145142e-01</leafValues></_>
        <_>
          <internalNodes>
            0 -1 168 1.2204645201563835e-02</internalNodes>
          <leafValues>
            -1.7311112582683563e-01 8.1750988960266113e-01</leafValues></_>
        <_>
          <internalNodes>
            0 -1 159 1.1383023113012314e-02</internalNodes>
          <leafValues>
            -3.2953312993049622e-01 7.5659376382827759e-01</leafValues></_>
        <_>
          <internalNodes>
            0 -1 140 -4.7318711876869202e-03</internalNodes>
          <leafValues>
            7.6663738489151001e-01 -2.3322764039039612e-01</leafValues></_>
        <_>
          <internalNodes>
            0 -1 37 -1.0725678876042366e-02</internalNodes>
          <leafValues>
            7.8248912096023560e-01 -2.4307990074157715e-01</leafValues></_>
        <_>
          <internalNodes>
            0 -1 103 -2.0640138536691666e-03</internalNodes>
          <leafValues>
            8.1683588027954102e-01 -1.9356830418109894e-01</leafValues></_>
        <_>
          <internalNodes>
            0 -1 156 9.9871717393398285e-03</internalNodes>
          <leafValues>
            -1.7279027402400970e-01 7.9746717214584351e-01</leafValues></_>
        <_>
          <internalNodes>
            0 -1 134 -2.4400264956057072e-03</internalNodes>
          <leafValues>
            6.0679447650909424e-01 -2.5170570611953735e-01</leafValues></_></weakClassifiers></_>
    <!-- stage 8 -->
    <_>
      <maxWeakCount>8</maxWeakCount>
      <stageThreshold>-5.2200967073440552e-01</stageThreshold>
      <weakClassifiers>
        <_>
          <internalNodes>
            0 -1 36 -1.5857413411140442e-02</internalNodes>
          <leafValues>
            -6.6336631774902344e-01 5.0193798542022705e-01</leafValues></_>
        <_>
          <internalNodes>
            0 -1 24 2.0130176097154617e-02</internalNodes>
          <leafValues>
            -2.5975018739700317e-01 6.9346010684967041e-01</leafValues></_>
        <_>
          <internalNodes>
            0 -1 3 -1.1940263211727142e-02</internalNodes>
          <leafValues>
            2.7890852093696594e-01 -7.7987796068191528e-01</leafValues></_>
        <_>
          <internalNodes>
            0 -1 171 -1.7322435975074768e-02</internalNodes>
          <leafValues>
            7.7932381629943848e-01 -2.4821327626705170e-01</leafValues></_>
        <_>
          <internalNodes>
            0 -1 117 -2.9400999192148447e-03</internalNodes>
          <leafValues>
            -8.2824379205703735e-01 2.0757989585399628e-01</leafValues></_>
        <_>
          <internalNodes>
            0 -1 27 -5.5888658389449120e-03</internalNodes>
          <leafValues>
            6.2272697687149048e-01 -2.6900225877761841e-01</leafValues></_>
        <_>
          <internalNodes>
            0 -1 150 -1.8387862946838140e-03</internalNodes>
          <leafValues>
            -8.7404894828796387e-01 1.8811969459056854e-01</leafValues></_>
        <_>
          <internalNodes>
            0 -1 29 7.8113321214914322e-03</internalNodes>
          <leafValues>
            -6.2208122014999390e-01 2.4371428787708282e-01</leafValues></_></weakClassifiers></_>
    <!-- stage 9 -->
    <_>
      <maxWeakCount>11</maxWeakCount>
      <stageThreshold>-1.1148134469985962e+00</stageThreshold>
      <weakClassifiers>
        <_>
          <internalNodes>
            0 -1 136 4.4174408540129662e-03</internalNodes>
          <leafValues>
            4.8430067300796509e-01 -6.8306010961532593e-01</leafValues></_>
        <_>
          <internalNodes>
            0 -1 119 7.6818997040390968e-03</internalNodes>
          <leafValues>
            -5.4853218793869019e-01 3.3252325654029846e-01</leafValues></_>
        <_>
          <internalNodes>
            0 -1 194 1.9330754876136780e-02</internalNodes>
          <leafValues>
            -2.5262549519538879e-01 6.6633677482604980e-01</leafValues></_>
        <_>
          <internalNodes>
            0 -1 149 -1.8387738615274429e-02</internalNodes>
          <leafValues>
            -7.2037005424499512e-01 2.2162313759326935e-01</leafValues></_>
        <_>
          <internalNodes>
            0 -1 181 -1.3019496574997902e-02</internalNodes>
          <leafValues>
            7.1947342157363892e-01 -2.5286802649497986e-01</leafValues></_>
        <_>
          <internalNodes>
            0 -1 12 -4.2201399803161621e-02</internalNodes>
          <leafValues>
            -8.2552224397659302e-01 1.9341556727886200e-01</leafValues></_>
        <_>
          <internalNodes>
            0 -1 50 -1.0765783954411745e-03</internalNodes>
          <leafValues>
            -8.3506959676742554e-01 1.2629453837871552e-01</leafValues></_>
        <_>
          <internalNodes>
            0 -1 50 1.4181397855281830e-03</internalNodes>
          <leafValues>
            1.5351983904838562e-01 -8.3175843954086304e-01</leafValues></_>
        <_>
          <internalNodes>
            0 -1 38 -2.6186458766460419e-02</internalNodes>
          <leafValues>
            8.6771005392074585e-01 -2.0666053891181946e-01</leafValues></_>
        <_>
          <internalNodes>
            0 -1 35 1.1166553944349289e-02</internalNodes>
          <leafValues>
            -2.3179128766059875e-01 6.0231041908264160e-01</leafValues></_>
        <_>
          <internalNodes>
            0 -1 158 5.8849472552537918e-03</internalNodes>
          <leafValues>
            1.5987451374530792e-01 -9.6025830507278442e-01</leafValues></_></weakClassifiers></_>
    <!-- stage 10 -->
    <_>
      <maxWeakCount>11</maxWeakCount>
      <stageThreshold>-8.7577050924301147e-01</stageThreshold>
      <weakClassifiers>
        <_>
          <internalNodes>
            0 -1 83 5.7159997522830963e-03</internalNodes>
          <leafValues>
            -4.4727271795272827e-01 5.2867567539215088e-01</leafValues></_>
        <_>
          <internalNodes>
            0 -1 4 -1.3564707711338997e-02</internalNodes>
          <leafValues>
            6.7777502536773682e-01 -2.5719448924064636e-01</leafValues></_>
        <_>
          <internalNodes>
            0 -1 177 -1.5601249411702156e-02</internalNodes>
          <leafValues>
            8.2907092571258545e-01 -1.8752872943878174e-01</leafValues></_>
        <_>
          <internalNodes>
            0 -1 179 5.6456173770129681e-03</internalNodes>
          <leafValues>
            -2.5064671039581299e-01 6.2362176179885864e-01</leafValues></_>
        <_>
          <internalNodes>
            0 -1 73 -6.4707598648965359e-03</internalNodes>
          <leafValues>
            5.6396955251693726e-01 -2.6191267371177673e-01</leafValues></_>
        <_>
          <internalNodes>
            0 -1 65 -1.8322829157114029e-02</internalNodes>
          <leafValues>
            7.6915937662124634e-01 -2.1557909250259399e-01</leafValues></_>
        <_>
          <internalNodes>
            0 -1 124 1.9087034743279219e-03</internalNodes>
          <leafValues>
            -1.8414069712162018e-01 7.0272004604339600e-01</leafValues></_>
        <_>
          <internalNodes>
            0 -1 152 -1.2117322534322739e-02</internalNodes>
          <leafValues>
            8.0620348453521729e-01 -1.6012342274188995e-01</leafValues></_>
        <_>
          <internalNodes>
            0 -1 165 4.1451430879533291e-03</internalNodes>
          <leafValues>
            3.0055215954780579e-01 -6.3218706846237183e-01</leafValues></_>
        <_>
          <internalNodes>
            0 -1 125 1.2393221259117126e-02</internalNodes>
          <leafValues>
            -2.7340221405029297e-01 6.3428670167922974e-01</leafValues></_>
        <_>
          <internalNodes>
            0 -1 172 -1.1404911056160927e-03</internalNodes>
          <leafValues>
            -9.6274036169052124e-01 1.7238704860210419e-01</leafValues></_></weakClassifiers></_>
    <!-- stage 11 -->
    <_>
      <maxWeakCount>12</maxWeakCount>
      <stageThreshold>-1.0370284318923950e+00</stageThreshold>
      <weakClassifiers>
        <_>
          <internalNodes>
            0 -1 70 -2.0973701612092555e-04</internalNodes>
          <leafValues>
            5.1065987348556519e-01 -4.7791165113449097e-01</leafValues></_>
        <_>
          <internalNodes>
            0 -1 67 1.0302121751010418e-02</internalNodes>
          <leafValues>
            -4.6999275684356689e-01 3.7237113714218140e-01</leafValues></_>
        <_>
          <internalNodes>
            0 -1 175 1.7189502716064453e-02</internalNodes>
          <leafValues>
            2.5990384817123413e-01 -6.9154816865921021e-01</leafValues></_>
        <_>
          <internalNodes>
            0 -1 31 1.8627248704433441e-02</internalNodes>
          <leafValues>
            -2.6536521315574646e-01 6.8103969097137451e-01</leafValues></_>
        <_>
          <internalNodes>
            0 -1 172 6.4389302860945463e-04</internalNodes>
          <leafValues>
            1.9122414290904999e-01 -7.1035915613174438e-01</leafValues></_>
        <_>
          <internalNodes>
            0 -1 43 9.4342352822422981e-03</internalNodes>
          <leafValues>
            -3.1674143671989441e-01 5.2382826805114746e-01</leafValues></_>
        <_>
          <internalNodes>
            0 -1 54 1.4155423268675804e-02</internalNodes>
          <leafValues>
            -1.9573315978050232e-01 6.5694719552993774e-01</leafValues></_>
        <_>
          <internalNodes>
            0 -1 115 -1.5043639577925205e-03</internalNodes>
          <leafValues>
            -8.2676076889038086e-01 1.7360924184322357e-01</leafValues></_>
        <_>
          <internalNodes>
            0 -1 113 -4.9921376630663872e-03</internalNodes>
          <leafValues>
            4.9275252223014832e-01 -3.0384904146194458e-01</leafValues></_>
        <_>
          <internalNodes>
            0 -1 114 1.5881522558629513e-03</internalNodes>
          <leafValues>
            2.2185710072517395e-01 -7.4177002906799316e-01</leafValues></_>
        <_>
          <internalNodes>
            0 -1 129 1.0890570469200611e-02</internalNodes>
          <leafValues>
            -2.2584423422813416e-01 7.9422575235366821e-01</leafValues></_>
        <_>
          <internalNodes>
            0 -1 174 2.9162089340388775e-03</internalNodes>
          <leafValues>
            -4.2144450545310974e-01 3.3469519019126892e-01</leafValues></_></weakClassifiers></_>
    <!-- stage 12 -->
    <_>
      <maxWeakCount>10</maxWeakCount>
      <stageThreshold>-7.4062824249267578e-01</stageThreshold>
      <weakClassifiers>
        <_>
          <internalNodes>
            0 -1 66 -3.4363292157649994e-02</internalNodes>
          <leafValues>
            6.4721846580505371e-01 -1.8712273240089417e-01</leafValues></_>
        <_>
          <internalNodes>
            0 -1 197 -1.0688945651054382e-02</internalNodes>
          <leafValues>
            4.6652173995971680e-01 -3.7321054935455322e-01</leafValues></_>
        <_>
          <internalNodes>
            0 -1 139 -6.1727045103907585e-03</internalNodes>
          <leafValues>
            7.0575922727584839e-01 -2.0521992444992065e-01</leafValues></_>
        <_>
          <internalNodes>
            0 -1 131 -8.3471648395061493e-03</internalNodes>
          <leafValues>
            6.1319011449813843e-01 -2.7341708540916443e-01</leafValues></_>
        <_>
          <internalNodes>
            0 -1 11 9.8540224134922028e-02</internalNodes>
          <leafValues>
            2.2301571071147919e-01 -7.2554475069046021e-01</leafValues></_>
        <_>
          <internalNodes>
            0 -1 74 -5.5663795210421085e-03</internalNodes>
          <leafValues>
            7.6888346672058105e-01 -2.2479999065399170e-01</leafValues></_>
        <_>
          <internalNodes>
            0 -1 68 -1.0049659758806229e-02</internalNodes>
          <leafValues>
            7.0459240674972534e-01 -1.7611822485923767e-01</leafValues></_>
        <_>
          <internalNodes>
            0 -1 97 1.4368619769811630e-02</internalNodes>
          <leafValues>
            1.6861049830913544e-01 -8.9348077774047852e-01</leafValues></_>
        <_>
          <internalNodes>
            0 -1 146 -9.6907932311296463e-03</internalNodes>
          <leafValues>
            5.8132028579711914e-01 -2.3823013901710510e-01</leafValues></_>
        <_>
          <internalNodes>
            0 -1 178 -1.0252300649881363e-02</internalNodes>
          <leafValues>
            6.0443162918090820e-01 -2.3191477358341217e-01</leafValues></_></weakClassifiers></_>
    <!-- stage 13 -->
    <_>
      <maxWeakCount>10</maxWeakCount>
      <stageThreshold>-8.4819990396499634e-01</stageThreshold>
      <weakClassifiers>
        <_>
          <internalNodes>
            0 -1 99 2.0285136997699738e-03</internalNodes>
          <leafValues>
            -4.4155845046043396e-01 5.6155508756637573e-01</leafValues></_>
        <_>
          <internalNodes>
            0 -1 145 1.5720423310995102e-02</internalNodes>
          <leafValues>
            -1.8750725686550140e-01 7.0431733131408691e-01</leafValues></_>
        <_>
          <internalNodes>
            0 -1 86 8.7588485330343246e-03</internalNodes>
          <leafValues>
            -4.6543145179748535e-01 3.3981233835220337e-01</leafValues></_>
        <_>
          <internalNodes>
            0 -1 96 -1.5161184594035149e-02</internalNodes>
          <leafValues>
            -9.0547555685043335e-01 1.5353682637214661e-01</leafValues></_>
        <_>
          <internalNodes>
            0 -1 22 -1.5029611531645060e-03</internalNodes>
          <leafValues>
            2.5260907411575317e-01 -4.8481982946395874e-01</leafValues></_>
        <_>
          <internalNodes>
            0 -1 53 -1.4282470569014549e-02</internalNodes>
          <leafValues>
            2.7199172973632813e-01 -4.5742803812026978e-01</leafValues></_>
        <_>
          <internalNodes>
            0 -1 157 1.0887293610721827e-03</internalNodes>
          <leafValues>
            1.3939148187637329e-01 -8.2944238185882568e-01</leafValues></_>
        <_>
          <internalNodes>
            0 -1 173 1.0016424581408501e-02</internalNodes>
          <leafValues>
            -2.5733840465545654e-01 6.1572611331939697e-01</leafValues></_>
        <_>
          <internalNodes>
            0 -1 169 1.0541640222072601e-02</internalNodes>
          <leafValues>
            -2.2350952029228210e-01 6.4764666557312012e-01</leafValues></_>
        <_>
          <internalNodes>
            0 -1 161 6.4899362623691559e-03</internalNodes>
          <leafValues>
            -2.2411121428012848e-01 6.0350054502487183e-01</leafValues></_></weakClassifiers></_>
    <!-- stage 14 -->
    <_>
      <maxWeakCount>14</maxWeakCount>
      <stageThreshold>-7.7566033601760864e-01</stageThreshold>
      <weakClassifiers>
        <_>
          <internalNodes>
            0 -1 6 -1.2065014801919460e-02</internalNodes>
          <leafValues>
            7.8012686967849731e-01 1.9710905849933624e-02</leafValues></_>
        <_>
          <internalNodes>
            0 -1 45 -5.6440837681293488e-02</internalNodes>
          <leafValues>
            3.2716625928878784e-01 -5.2372503280639648e-01</leafValues></_>
        <_>
          <internalNodes>
            0 -1 164 -4.6865362673997879e-03</internalNodes>
          <leafValues>
            6.2779468297958374e-01 -2.4603627622127533e-01</leafValues></_>
        <_>
          <internalNodes>
            0 -1 138 -1.3504486531019211e-02</internalNodes>
          <leafValues>
            6.8211495876312256e-01 -2.1869987249374390e-01</leafValues></_>
        <_>
          <internalNodes>
            0 -1 133 -1.5421880409121513e-02</internalNodes>
          <leafValues>
            7.5255870819091797e-01 -2.0686148107051849e-01</leafValues></_>
        <_>
          <internalNodes>
            0 -1 147 -1.0414216667413712e-02</internalNodes>
          <leafValues>
            6.5321606397628784e-01 -1.8357735872268677e-01</leafValues></_>
        <_>
          <internalNodes>
            0 -1 182 1.1515111662447453e-02</internalNodes>
          <leafValues>
            -1.7628242075443268e-01 6.3378643989562988e-01</leafValues></_>
        <_>
          <internalNodes>
            0 -1 112 1.5158419264480472e-03</internalNodes>
          <leafValues>
            -1.7487847805023193e-01 6.2346601486206055e-01</leafValues></_>
        <_>
          <internalNodes>
            0 -1 187 1.0634098201990128e-02</internalNodes>
          <leafValues>
            -2.3490881919860840e-01 5.0169777870178223e-01</leafValues></_>
        <_>
          <internalNodes>
            0 -1 186 7.8812963329255581e-04</internalNodes>
          <leafValues>
            1.8559220433235168e-01 -7.4394547939300537e-01</leafValues></_>
        <_>
          <internalNodes>
            0 -1 206 -1.7209227662533522e-03</internalNodes>
          <leafValues>
            -6.0111957788467407e-01 1.8360394239425659e-01</leafValues></_>
        <_>
          <internalNodes>
            0 -1 46 -1.7193062230944633e-02</internalNodes>
          <leafValues>
            6.3385099172592163e-01 -2.0013192296028137e-01</leafValues></_>
        <_>
          <internalNodes>
            0 -1 104 -7.9755652695894241e-03</internalNodes>
          <leafValues>
            4.5421212911605835e-01 -2.6872050762176514e-01</leafValues></_>
        <_>
          <internalNodes>
            0 -1 111 1.1211952660232782e-03</internalNodes>
          <leafValues>
            -1.8537098169326782e-01 6.0460180044174194e-01</leafValues></_></weakClassifiers></_>
    <!-- stage 15 -->
    <_>
      <maxWeakCount>13</maxWeakCount>
      <stageThreshold>-6.8199139833450317e-01</stageThreshold>
      <weakClassifiers>
        <_>
          <internalNodes>
            0 -1 184 6.7331697791814804e-03</internalNodes>
          <leafValues>
            4.2805755138397217e-01 -7.5409835577011108e-01</leafValues></_>
        <_>
          <internalNodes>
            0 -1 95 -5.1608518697321415e-03</internalNodes>
          <leafValues>
            5.5910110473632813e-01 -2.3303323984146118e-01</leafValues></_>
        <_>
          <internalNodes>
            0 -1 44 -4.6648584306240082e-02</internalNodes>
          <leafValues>
            3.2689937949180603e-01 -4.1848641633987427e-01</leafValues></_>
        <_>
          <internalNodes>
            0 -1 71 -1.1820247396826744e-02</internalNodes>
          <leafValues>
            6.1960822343826294e-01 -1.9333507120609283e-01</leafValues></_>
        <_>
          <internalNodes>
            0 -1 122 -3.7912095431238413e-03</internalNodes>
          <leafValues>
            5.6882554292678833e-01 -2.0657713711261749e-01</leafValues></_>
        <_>
          <internalNodes>
            0 -1 13 -5.2477926947176456e-03</internalNodes>
          <leafValues>
            -7.4841725826263428e-01 1.6440227627754211e-01</leafValues></_>
        <_>
          <internalNodes>
            0 -1 108 7.5014969334006310e-03</internalNodes>
          <leafValues>
            -3.0829334259033203e-01 4.4752791523933411e-01</leafValues></_>
        <_>
          <internalNodes>
            0 -1 116 6.5984418615698814e-03</internalNodes>
          <leafValues>
            1.9053961336612701e-01 -9.2547255754470825e-01</leafValues></_>
        <_>
          <internalNodes>
            0 -1 203 -1.9722908735275269e-02</internalNodes>
          <leafValues>
            5.1270604133605957e-01 -2.9615947604179382e-01</leafValues></_>
        <_>
          <internalNodes>
            0 -1 191 1.4355370774865150e-02</internalNodes>
          <leafValues>
            -1.8412768840789795e-01 6.2797480821609497e-01</leafValues></_>
        <_>
          <internalNodes>
            0 -1 144 3.8372124545276165e-03</internalNodes>
          <leafValues>
            1.5098150074481964e-01 -8.4121614694595337e-01</leafValues></_>
        <_>
          <internalNodes>
            0 -1 82 -1.4052416197955608e-02</internalNodes>
          <leafValues>
            6.2005847692489624e-01 -2.2206921875476837e-01</leafValues></_>
        <_>
          <internalNodes>
            0 -1 58 -5.5338274687528610e-03</internalNodes>
          <leafValues>
            4.5050826668739319e-01 -2.3902016878128052e-01</leafValues></_></weakClassifiers></_>
    <!-- stage 16 -->
    <_>
      <maxWeakCount>14</maxWeakCount>
      <stageThreshold>-8.3900594711303711e-01</stageThreshold>
      <weakClassifiers>
        <_>
          <internalNodes>
            0 -1 63 -4.6369857154786587e-03</internalNodes>
          <leafValues>
            5.0202429294586182e-01 -4.5528456568717957e-01</leafValues></_>
        <_>
          <internalNodes>
            0 -1 23 -1.6671461984515190e-02</internalNodes>
          <leafValues>
            6.4660602807998657e-01 -1.8068017065525055e-01</leafValues></_>
        <_>
          <internalNodes>
            0 -1 135 -5.7084229774773121e-03</internalNodes>
          <leafValues>
            5.8650094270706177e-01 -2.0211444795131683e-01</leafValues></_>
        <_>
          <internalNodes>
            0 -1 126 -9.3823783099651337e-03</internalNodes>
          <leafValues>
            6.2329947948455811e-01 -2.2429540753364563e-01</leafValues></_>
        <_>
          <internalNodes>
            0 -1 100 3.2518785446882248e-03</internalNodes>
          <leafValues>
            -4.5935896039009094e-01 2.6174789667129517e-01</leafValues></_>
        <_>
          <internalNodes>
            0 -1 30 -3.5451313015073538e-03</internalNodes>
          <leafValues>
            3.7911209464073181e-01 -3.1317064166069031e-01</leafValues></_>
        <_>
          <internalNodes>
            0 -1 130 1.5731169842183590e-03</internalNodes>
          <leafValues>
            1.5580645203590393e-01 -8.5435122251510620e-01</leafValues></_>
        <_>
          <internalNodes>
            0 -1 59 7.2418944910168648e-03</internalNodes>
          <leafValues>
            -2.0724046230316162e-01 6.3362962007522583e-01</leafValues></_>
        <_>
          <internalNodes>
            0 -1 92 2.8795420657843351e-03</internalNodes>
          <leafValues>
            -2.0841358602046967e-01 5.0620335340499878e-01</leafValues></_>
        <_>
          <internalNodes>
            0 -1 183 1.4578127302229404e-02</internalNodes>
          <leafValues>
            -2.1421636641025543e-01 4.8689979314804077e-01</leafValues></_>
        <_>
          <internalNodes>
            0 -1 142 -1.6753942472860217e-03</internalNodes>
          <leafValues>
            -7.8545910120010376e-01 1.4111924171447754e-01</leafValues></_>
        <_>
          <internalNodes>
            0 -1 84 1.1072307825088501e-03</internalNodes>
          <leafValues>
            -2.7177840471267700e-01 4.0697023272514343e-01</leafValues></_>
        <_>
          <internalNodes>
            0 -1 62 -4.5231198891997337e-03</internalNodes>
          <leafValues>
            1.5969651937484741e-01 -6.6978520154953003e-01</leafValues></_>
        <_>
          <internalNodes>
            0 -1 137 -4.3827947229146957e-03</internalNodes>
          <leafValues>
            4.7876212000846863e-01 -2.0866675674915314e-01</leafValues></_></weakClassifiers></_>
    <!-- stage 17 -->
    <_>
      <maxWeakCount>14</maxWeakCount>
      <stageThreshold>-8.7688440084457397e-01</stageThreshold>
      <weakClassifiers>
        <_>
          <internalNodes>
            0 -1 89 4.0892069227993488e-03</internalNodes>
          <leafValues>
            -2.4629080295562744e-01 5.2062427997589111e-01</leafValues></_>
        <_>
          <internalNodes>
            0 -1 20 1.1766146868467331e-02</internalNodes>
          <leafValues>
            -3.6672443151473999e-01 3.4288018941879272e-01</leafValues></_>
        <_>
          <internalNodes>
            0 -1 154 1.7551343888044357e-02</internalNodes>
          <leafValues>
            -1.6919726133346558e-01 6.5409892797470093e-01</leafValues></_>
        <_>
          <internalNodes>
            0 -1 88 7.3536336421966553e-03</internalNodes>
          <leafValues>
            1.6590993106365204e-01 -7.3505026102066040e-01</leafValues></_>
        <_>
          <internalNodes>
            0 -1 39 2.4763499386608601e-03</internalNodes>
          <leafValues>
            -3.2910200953483582e-01 3.3200252056121826e-01</leafValues></_>
        <_>
          <internalNodes>
            0 -1 52 -8.6625525727868080e-03</internalNodes>
          <leafValues>
            -8.9727908372879028e-01 1.1228405684232712e-01</leafValues></_>
        <_>
          <internalNodes>
            0 -1 200 -2.3355230689048767e-02</internalNodes>
          <leafValues>
            5.1025271415710449e-01 -2.1578055620193481e-01</leafValues></_>
        <_>
          <internalNodes>
            0 -1 205 2.3547988384962082e-03</internalNodes>
          <leafValues>
            1.8148356676101685e-01 -6.1223220825195313e-01</leafValues></_>
        <_>
          <internalNodes>
            0 -1 198 -2.1921746432781219e-02</internalNodes>
          <leafValues>
            5.5578351020812988e-01 -1.9266620278358459e-01</leafValues></_>
        <_>
          <internalNodes>
            0 -1 34 1.0580901056528091e-02</internalNodes>
          <leafValues>
            -1.9545365869998932e-01 5.2631348371505737e-01</leafValues></_>
        <_>
          <internalNodes>
            0 -1 185 -7.3995394632220268e-03</internalNodes>
          <leafValues>
            6.5655243396759033e-01 -1.8392433226108551e-01</leafValues></_>
        <_>
          <internalNodes>
            0 -1 69 -7.7380063012242317e-03</internalNodes>
          <leafValues>
            5.2991306781768799e-01 -2.0340929925441742e-01</leafValues></_>
        <_>
          <internalNodes>
            0 -1 151 -5.4213288240134716e-03</internalNodes>
          <leafValues>
            -7.5339746475219727e-01 1.6608072817325592e-01</leafValues></_>
        <_>
          <internalNodes>
            0 -1 10 4.1358070448040962e-03</internalNodes>
          <leafValues>
            1.2495718151330948e-01 -7.2926539182662964e-01</leafValues></_></weakClassifiers></_>
    <!-- stage 18 -->
    <_>
      <maxWeakCount>15</maxWeakCount>
      <stageThreshold>-9.4628024101257324e-01</stageThreshold>
      <weakClassifiers>
        <_>
          <internalNodes>
            0 -1 93 1.4590898528695107e-02</internalNodes>
          <leafValues>
            -2.4653740227222443e-01 5.4180985689163208e-01</leafValues></_>
        <_>
          <internalNodes>
            0 -1 189 1.2316426262259483e-02</internalNodes>
          <leafValues>
            -1.0735896974802017e-01 8.8875973224639893e-01</leafValues></_>
        <_>
          <internalNodes>
            0 -1 14 -3.4347050823271275e-03</internalNodes>
          <leafValues>
            4.7152960300445557e-01 -2.2038435935974121e-01</leafValues></_>
        <_>
          <internalNodes>
            0 -1 190 -3.0068431049585342e-02</internalNodes>
          <leafValues>
            3.4115535020828247e-01 -3.5408806800842285e-01</leafValues></_>
        <_>
          <internalNodes>
            0 -1 0 -1.8632400780916214e-02</internalNodes>
          <leafValues>
            4.3893155455589294e-01 -2.4859179556369781e-01</leafValues></_>
        <_>
          <internalNodes>
            0 -1 105 1.1119926348328590e-02</internalNodes>
          <leafValues>
            1.3640676438808441e-01 -7.9568189382553101e-01</leafValues></_>
        <_>
          <internalNodes>
            0 -1 77 -1.6087390482425690e-02</internalNodes>
          <leafValues>
            6.8849742412567139e-01 -1.8164895474910736e-01</leafValues></_>
        <_>
          <internalNodes>
            0 -1 49 1.5197125263512135e-02</internalNodes>
          <leafValues>
            -1.5274606645107269e-01 6.4511722326278687e-01</leafValues></_>
        <_>
          <internalNodes>
            0 -1 110 -4.5605562627315521e-03</internalNodes>
          <leafValues>
            2.3345918953418732e-01 -4.7852259874343872e-01</leafValues></_>
        <_>
          <internalNodes>
            0 -1 15 -1.5427948907017708e-02</internalNodes>
          <leafValues>
            4.2333739995956421e-01 -2.9005196690559387e-01</leafValues></_>
        <_>
          <internalNodes>
            0 -1 170 1.3628418091684580e-03</internalNodes>
          <leafValues>
            -2.6936364173889160e-01 4.1470116376876831e-01</leafValues></_>
        <_>
          <internalNodes>
            0 -1 32 -9.2868106439709663e-03</internalNodes>
          <leafValues>
            -7.3124665021896362e-01 1.6511528193950653e-01</leafValues></_>
        <_>
          <internalNodes>
            0 -1 160 1.2453798204660416e-02</internalNodes>
          <leafValues>
            -2.6098480820655823e-01 4.2672449350357056e-01</leafValues></_>
        <_>
          <internalNodes>
            0 -1 5 4.4477302581071854e-03</internalNodes>
          <leafValues>
            1.6483761370182037e-01 -7.2645974159240723e-01</leafValues></_>
        <_>
          <internalNodes>
            0 -1 75 -4.4495701789855957e-02</internalNodes>
          <leafValues>
            -8.0821424722671509e-01 1.0614825040102005e-01</leafValues></_></weakClassifiers></_>
    <!-- stage 19 -->
    <_>
      <maxWeakCount>17</maxWeakCount>
      <stageThreshold>-8.2534033060073853e-01</stageThreshold>
      <weakClassifiers>
        <_>
          <internalNodes>
            0 -1 123 4.2479662224650383e-03</internalNodes>
          <leafValues>
            -1.3364055752754211e-01 5.5250000953674316e-01</leafValues></_>
        <_>
          <internalNodes>
            0 -1 9 -3.2450042665004730e-02</internalNodes>
          <leafValues>
            6.3523298501968384e-01 -1.3163982331752777e-01</leafValues></_>
        <_>
          <internalNodes>
            0 -1 72 1.8658375367522240e-02</internalNodes>
          <leafValues>
            -1.6495224833488464e-01 5.7249116897583008e-01</leafValues></_>
        <_>
          <internalNodes>
            0 -1 87 -6.7729307338595390e-03</internalNodes>
          <leafValues>
            5.1619809865951538e-01 -2.0527435839176178e-01</leafValues></_>
        <_>
          <internalNodes>
            0 -1 57 -5.4537528194487095e-03</internalNodes>
          <leafValues>
            3.9255088567733765e-01 -2.5861138105392456e-01</leafValues></_>
        <_>
          <internalNodes>
            0 -1 90 5.7435311377048492e-02</internalNodes>
          <leafValues>
            -4.2898330092430115e-01 2.2981488704681396e-01</leafValues></_>
        <_>
          <internalNodes>
            0 -1 153 -4.7572106122970581e-03</internalNodes>
          <leafValues>
            3.7952989339828491e-01 -2.6715198159217834e-01</leafValues></_>
        <_>
          <internalNodes>
            0 -1 102 -3.0995914712548256e-03</internalNodes>
          <leafValues>
            4.1744631528854370e-01 -2.2275258600711823e-01</leafValues></_>
        <_>
          <internalNodes>
            0 -1 78 1.8699232023209333e-03</internalNodes>
          <leafValues>
            1.2958692014217377e-01 -7.9435050487518311e-01</leafValues></_>
        <_>
          <internalNodes>
            0 -1 81 1.9290961325168610e-02</internalNodes>
          <leafValues>
            -2.1057498455047607e-01 4.7397160530090332e-01</leafValues></_>
        <_>
          <internalNodes>
            0 -1 1 3.1170973088592291e-03</internalNodes>
          <leafValues>
            -3.6797845363616943e-01 2.7100512385368347e-01</leafValues></_>
        <_>
          <internalNodes>
            0 -1 163 -1.0914988815784454e-03</internalNodes>
          <leafValues>
            5.2179300785064697e-01 -1.8392819166183472e-01</leafValues></_>
        <_>
          <internalNodes>
            0 -1 155 -2.1447731181979179e-02</internalNodes>
          <leafValues>
            6.6934627294540405e-01 -1.4758393168449402e-01</leafValues></_>
        <_>
          <internalNodes>
            0 -1 166 3.6820243112742901e-03</internalNodes>
          <leafValues>
            1.2198856472969055e-01 -8.3774960041046143e-01</leafValues></_>
        <_>
          <internalNodes>
            0 -1 120 -2.3312887642532587e-03</internalNodes>
          <leafValues>
            3.8598984479904175e-01 -2.3973549902439117e-01</leafValues></_>
        <_>
          <internalNodes>
            0 -1 176 4.0972540155053139e-03</internalNodes>
          <leafValues>
            -1.8823078274726868e-01 4.6935504674911499e-01</leafValues></_>
        <_>
          <internalNodes>
            0 -1 51 1.3468754477798939e-03</internalNodes>
          <leafValues>
            1.2965863943099976e-01 -7.5688076019287109e-01</leafValues></_></weakClassifiers></_></stages>
  <features>
    <_>
      <rects>
        <_>
          0 0 3 14 -1.</_>
        <_>
          1 0 1 14 3.</_></rects>
      <tilted>0</tilted></_>
    <_>
      <rects>
        <_>
          0 0 6 6 -1.</_>
        <_>
          0 0 3 3 2.</_>
        <_>
          3 3 3 3 2.</_></rects>
      <tilted>0</tilted></_>
    <_>
      <rects>
        <_>
          0 1 3 14 -1.</_>
        <_>
          1 1 1 14 3.</_></rects>
      <tilted>0</tilted></_>
    <_>
      <rects>
        <_>
          0 1 24 6 -1.</_>
        <_>
          8 1 8 6 3.</_></rects>
      <tilted>0</tilted></_>
    <_>
      <rects>
        <_>
          0 2 2 10 -1.</_>
        <_>
          1 2 1 10 2.</_></rects>
      <tilted>0</tilted></_>
    <_>
      <rects>
        <_>
          0 3 1 6 -1.</_>
        <_>
          0 5 1 2 3.</_></rects>
      <tilted>0</tilted></_>
    <_>
      <rects>
        <_>
          0 3 3 5 -1.</_>
        <_>
          1 3 1 5 3.</_></rects>
      <tilted>0</tilted></_>
    <_>
      <rects>
        <_>
          0 3 3 7 -1.</_>
        <_>
          1 3 1 7 3.</_></rects>
      <tilted>0</tilted></_>
    <_>
      <rects>
        <_>
          0 3 3 8 -1.</_>
        <_>
          1 3 1 8 3.</_></rects>
      <tilted>0</tilted></_>
    <_>
      <rects>
        <_>
          0 3 3 10 -1.</_>
        <_>
          1 3 1 10 3.</_></rects>
      <tilted>0</tilted></_>
    <_>
      <rects>
        <_>
          0 4 1 6 -1.</_>
        <_>
          0 6 1 2 3.</_></rects>
      <tilted>0</tilted></_>
    <_>
      <rects>
        <_>
          0 4 27 6 -1.</_>
        <_>
          0 7 27 3 2.</_></rects>
      <tilted>0</tilted></_>
    <_>
      <rects>
        <_>
          0 6 30 3 -1.</_>
        <_>
          15 6 15 3 2.</_></rects>
      <tilted>0</tilted></_>
    <_>
      <rects>
        <_>
          0 8 2 4 -1.</_>
        <_>
          0 10 2 2 2.</_></rects>
      <tilted>0</tilted></_>
    <_>
      <rects>
        <_>
          1 0 2 4 -1.</_>
        <_>
          1 2 2 2 2.</_></rects>
      <tilted>0</tilted></_>
    <_>
      <rects>
        <_>
          1 1 3 12 -1.</_>
        <_>
          2 1 1 12 3.</_></rects>
      <tilted>0</tilted></_>
    <_>
      <rects>
        <_>
          1 2 3 11 -1.</_>
        <_>
          2 2 1 11 3.</_></rects>
      <tilted>0</tilted></_>
    <_>
      <rects>
        <_>
          1 2 3 13 -1.</_>
        <_>
          2 2 1 13 3.</_></rects>
      <tilted>0</tilted></_>
    <_>
      <rects>
        <_>
          1 3 4 9 -1.</_>
        <_>
          3 3 2 9 2.</_></rects>
      <tilted>0</tilted></_>
    <_>
      <rects>
        <_>
          1 4 3 10 -1.</_>
        <_>
          2 4 1 10 3.</_></rects>
      <tilted>0</tilted></_>
    <_>
      <rects>
        <_>
          1 4 4 11 -1.</_>
        <_>
          3 4 2 11 2.</_></rects>
      <tilted>0</tilted></_>
    <_>
      <rects>
        <_>
          1 6 4 5 -1.</_>
        <_>
          3 6 2 5 2.</_></rects>
      <tilted>0</tilted></_>
    <_>
      <rects>
        <_>
          1 7 4 8 -1.</_>
        <_>
          1 7 2 4 2.</_>
        <_>
          3 11 2 4 2.</_></rects>
      <tilted>0</tilted></_>
    <_>
      <rects>
        <_>
          2 1 6 3 -1.</_>
        <_>
          2 2 6 1 3.</_></rects>
      <tilted>0</tilted></_>
    <_>
      <rects>
        <_>
          2 2 3 9 -1.</_>
        <_>
          3 2 1 9 3.</_></rects>
      <tilted>0</tilted></_>
    <_>
      <rects>
        <_>
          2 3 3 9 -1.</_>
        <_>
          3 3 1 9 3.</_></rects>
      <tilted>0</tilted></_>
    <_>
      <rects>
        <_>
          2 3 9 11 -1.</_>
        <_>
          5 3 3 11 3.</_></rects>
      <tilted>0</tilted></_>
    <_>
      <rects>
        <_>
          2 4 3 7 -1.</_>
        <_>
          3 4 1 7 3.</_></rects>
      <tilted>0</tilted></_>
    <_>
      <rects>
        <_>
          2 4 21 3 -1.</_>
        <_>
          9 4 7 3 3.</_></rects>
      <tilted>0</tilted></_>
    <_>
      <rects>
        <_>
          2 5 9 7 -1.</_>
        <_>
          5 5 3 7 3.</_></rects>
      <tilted>0</tilted></_>
    <_>
      <rects>
        <_>
          2 6 1 9 -1.</_>
        <_>
          2 9 1 3 3.</_></rects>
      <tilted>0</tilted></_>
    <_>
      <rects>
        <_>
          2 6 3 5 -1.</_>
        <_>
          3 6 1 5 3.</_></rects>
      <tilted>0</tilted></_>
    <_>
      <rects>
        <_>
          2 6 9 6 -1.</_>
        <_>
          5 6 3 6 3.</_></rects>
      <tilted>0</tilted></_>
    <_>
      <rects>
        <_>
          2 11 14 2 -1.</_>
        <_>
          2 12 14 1 2.</_></rects>
      <tilted>0</tilted></_>
    <_>
      <rects>
        <_>
          2 13 26 2 -1.</_>
        <_>
          2 13 13 1 2.</_>
        <_>
          15 14 13 1 2.</_></rects>
      <tilted>0</tilted></_>
    <_>
      <rects>
        <_>
          3 0 3 11 -1.</_>
        <_>
          4 0 1 11 3.</_></rects>
      <tilted>0</tilted></_>
    <_>
      <rects>
        <_>
          3 0 12 3 -1.</_>
        <_>
          7 0 4 3 3.</_></rects>
      <tilted>0</tilted></_>
    <_>
      <rects>
        <_>
          3 1 5 3 -1.</_>
        <_>
          3 2 5 1 3.</_></rects>
      <tilted>0</tilted></_>
    <_>
      <rects>
        <_>
          3 2 3 10 -1.</_>
        <_>
          4 2 1 10 3.</_></rects>
      <tilted>0</tilted></_>
    <_>
      <rects>
        <_>
          3 2 3 2 -1.</_>
        <_>
          3 3 3 1 2.</_></rects>
      <tilted>0</tilted></_>
    <_>
      <rects>
        <_>
          3 2 18 13 -1.</_>
        <_>
          12 2 9 13 2.</_></rects>
      <tilted>0</tilted></_>
    <_>
      <rects>
        <_>
          3 3 21 8 -1.</_>
        <_>
          10 3 7 8 3.</_></rects>
      <tilted>0</tilted></_>
    <_>
      <rects>
        <_>
          3 3 21 9 -1.</_>
        <_>
          10 3 7 9 3.</_></rects>
      <tilted>0</tilted></_>
    <_>
      <rects>
        <_>
          3 4 3 7 -1.</_>
        <_>
          4 4 1 7 3.</_></rects>
      <tilted>0</tilted></_>
    <_>
      <rects>
        <_>
          3 4 21 2 -1.</_>
        <_>
          10 4 7 2 3.</_></rects>
      <tilted>0</tilted></_>
    <_>
      <rects>
        <_>
          3 4 21 6 -1.</_>
        <_>
          10 4 7 6 3.</_></rects>
      <tilted>0</tilted></_>
    <_>
      <rects>
        <_>
          3 5 3 7 -1.</_>
        <_>
          4 5 1 7 3.</_></rects>
      <tilted>0</tilted></_>
    <_>
      <rects>
        <_>
          3 7 21 6 -1.</_>
        <_>
          10 7 7 6 3.</_></rects>
      <tilted>0</tilted></_>
    <_>
      <rects>
        <_>
          3 8 25 6 -1.</_>
        <_>
          3 11 25 3 2.</_></rects>
      <tilted>0</tilted></_>
    <_>
      <rects>
        <_>
          3 12 22 2 -1.</_>
        <_>
          3 12 11 1 2.</_>
        <_>
          14 13 11 1 2.</_></rects>
      <tilted>0</tilted></_>
    <_>
      <rects>
        <_>
          3 14 3 1 -1.</_>
        <_>
          4 14 1 1 3.</_></rects>
      <tilted>0</tilted></_>
    <_>
      <rects>
        <_>
          4 0 3 2 -1.</_>
        <_>
          5 0 1 2 3.</_></rects>
      <tilted>0</tilted></_>
    <_>
      <rects>
        <_>
          4 0 6 3 -1.</_>
        <_>
          6 0 2 3 3.</_></rects>
      <tilted>0</tilted></_>
    <_>
      <rects>
        <_>
          4 0 10 6 -1.</_>
        <_>
          4 0 5 3 2.</_>
        <_>
          9 3 5 3 2.</_></rects>
      <tilted>0</tilted></_>
    <_>
      <rects>
        <_>
          4 3 3 9 -1.</_>
        <_>
          5 3 1 9 3.</_></rects>
      <tilted>0</tilted></_>
    <_>
      <rects>
        <_>
          4 4 3 10 -1.</_>
        <_>
          5 4 1 10 3.</_></rects>
      <tilted>0</tilted></_>
    <_>
      <rects>
        <_>
          4 5 12 4 -1.</_>
        <_>
          4 7 12 2 2.</_></rects>
      <tilted>0</tilted></_>
    <_>
      <rects>
        <_>
          4 11 11 2 -1.</_>
        <_>
          4 12 11 1 2.</_></rects>
      <tilted>0</tilted></_>
    <_>
      <rects>
        <_>
          4 12 19 2 -1.</_>
        <_>
          4 13 19 1 2.</_></rects>
      <tilted>0</tilted></_>
    <_>
      <rects>
        <_>
          5 1 7 2 -1.</_>
        <_>
          5 2 7 1 2.</_></rects>
      <tilted>0</tilted></_>
    <_>
      <rects>
        <_>
          5 2 8 6 -1.</_>
        <_>
          9 2 4 6 2.</_></rects>
      <tilted>0</tilted></_>
    <_>
      <rects>
        <_>
          5 3 3 7 -1.</_>
        <_>
          6 3 1 7 3.</_></rects>
      <tilted>0</tilted></_>
    <_>
      <rects>
        <_>
          5 3 18 7 -1.</_>
        <_>
          11 3 6 7 3.</_></rects>
      <tilted>0</tilted></_>
    <_>
      <rects>
        <_>
          5 9 21 3 -1.</_>
        <_>
          12 9 7 3 3.</_></rects>
      <tilted>0</tilted></_>
    <_>
      <rects>
        <_>
          6 0 3 2 -1.</_>
        <_>
          7 0 1 2 3.</_></rects>
      <tilted>0</tilted></_>
    <_>
      <rects>
        <_>
          6 1 3 12 -1.</_>
        <_>
          7 1 1 12 3.</_></rects>
      <tilted>0</tilted></_>
    <_>
      <rects>
        <_>
          6 3 9 6 -1.</_>
        <_>
          9 3 3 6 3.</_></rects>
      <tilted>0</tilted></_>
    <_>
      <rects>
        <_>
          6 3 6 12 -1.</_>
        <_>
          6 3 3 6 2.</_>
        <_>
          9 9 3 6 2.</_></rects>
      <tilted>0</tilted></_>
    <_>
      <rects>
        <_>
          6 6 3 4 -1.</_>
        <_>
          7 6 1 4 3.</_></rects>
      <tilted>0</tilted></_>
    <_>
      <rects>
        <_>
          6 7 11 3 -1.</_>
        <_>
          6 8 11 1 3.</_></rects>
      <tilted>0</tilted></_>
    <_>
      <rects>
        <_>
          6 9 18 6 -1.</_>
        <_>
          12 9 6 6 3.</_></rects>
      <tilted>0</tilted></_>
    <_>
      <rects>
        <_>
          6 11 9 2 -1.</_>
        <_>
          6 12 9 1 2.</_></rects>
      <tilted>0</tilted></_>
    <_>
      <rects>
        <_>
          7 4 3 8 -1.</_>
        <_>
          8 4 1 8 3.</_></rects>
      <tilted>0</tilted></_>
    <_>
      <rects>
        <_>
          7 7 6 1 -1.</_>
        <_>
          9 7 2 1 3.</_></rects>
      <tilted>0</tilted></_>
    <_>
      <rects>
        <_>
          7 8 3 2 -1.</_>
        <_>
          8 8 1 2 3.</_></rects>
      <tilted>0</tilted></_>
    <_>
      <rects>
        <_>
          7 9 12 5 -1.</_>
        <_>
          11 9 4 5 3.</_></rects>
      <tilted>0</tilted></_>
    <_>
      <rects>
        <_>
          7 10 11 4 -1.</_>
        <_>
          7 12 11 2 2.</_></rects>
      <tilted>0</tilted></_>
    <_>
      <rects>
        <_>
          7 12 18 2 -1.</_>
        <_>
          7 12 9 1 2.</_>
        <_>
          16 13 9 1 2.</_></rects>
      <tilted>0</tilted></_>
    <_>
      <rects>
        <_>
          7 13 3 2 -1.</_>
        <_>
          8 13 1 2 3.</_></rects>
      <tilted>0</tilted></_>
    <_>
      <rects>
        <_>
          7 13 6 2 -1.</_>
        <_>
          9 13 2 2 3.</_></rects>
      <tilted>0</tilted></_>
    <_>
      <rects>
        <_>
          8 0 9 4 -1.</_>
        <_>
          11 0 3 4 3.</_></rects>
      <tilted>0</tilted></_>
    <_>
      <rects>
        <_>
          8 2 20 2 -1.</_>
        <_>
          8 2 10 1 2.</_>
        <_>
          18 3 10 1 2.</_></rects>
      <tilted>0</tilted></_>
    <_>
      <rects>
        <_>
          8 4 3 7 -1.</_>
        <_>
          9 4 1 7 3.</_></rects>
      <tilted>0</tilted></_>
    <_>
      <rects>
        <_>
          8 4 7 6 -1.</_>
        <_>
          8 7 7 3 2.</_></rects>
      <tilted>0</tilted></_>
    <_>
      <rects>
        <_>
          9 2 2 10 -1.</_>
        <_>
          10 2 1 10 2.</_></rects>
      <tilted>0</tilted></_>
    <_>
      <rects>
        <_>
          9 3 16 8 -1.</_>
        <_>
          17 3 8 8 2.</_></rects>
      <tilted>0</tilted></_>
    <_>
      <rects>
        <_>
          9 5 6 6 -1.</_>
        <_>
          9 7 6 2 3.</_></rects>
      <tilted>0</tilted></_>
    <_>
      <rects>
        <_>
          9 10 3 3 -1.</_>
        <_>
          9 11 3 1 3.</_></rects>
      <tilted>0</tilted></_>
    <_>
      <rects>
        <_>
          10 0 6 5 -1.</_>
        <_>
          12 0 2 5 3.</_></rects>
      <tilted>0</tilted></_>
    <_>
      <rects>
        <_>
          10 0 4 9 -1.</_>
        <_>
          12 0 2 9 2.</_></rects>
      <tilted>0</tilted></_>
    <_>
      <rects>
        <_>
          10 2 14 11 -1.</_>
        <_>
          17 2 7 11 2.</_></rects>
      <tilted>0</tilted></_>
    <_>
      <rects>
        <_>
          10 3 4 6 -1.</_>
        <_>
          12 3 2 6 2.</_></rects>
      <tilted>0</tilted></_>
    <_>
      <rects>
        <_>
          10 3 5 2 -1.</_>
        <_>
          10 4 5 1 2.</_></rects>
      <tilted>0</tilted></_>
    <_>
      <rects>
        <_>
          10 4 6 6 -1.</_>
        <_>
          10 7 6 3 2.</_></rects>
      <tilted>0</tilted></_>
    <_>
      <rects>
        <_>
          10 5 4 4 -1.</_>
        <_>
          12 5 2 4 2.</_></rects>
      <tilted>0</tilted></_>
    <_>
      <rects>
        <_>
          10 10 4 3 -1.</_>
        <_>
          10 11 4 1 3.</_></rects>
      <tilted>0</tilted></_>
    <_>
      <rects>
        <_>
          10 12 9 3 -1.</_>
        <_>
          13 12 3 3 3.</_></rects>
      <tilted>0</tilted></_>
    <_>
      <rects>
        <_>
          11 0 6 6 -1.</_>
        <_>
          13 0 2 6 3.</_></rects>
      <tilted>0</tilted></_>
    <_>
      <rects>
        <_>
          11 0 14 6 -1.</_>
        <_>
          11 0 7 3 2.</_>
        <_>
          18 3 7 3 2.</_></rects>
      <tilted>0</tilted></_>
    <_>
      <rects>
        <_>
          11 3 4 6 -1.</_>
        <_>
          13 3 2 6 2.</_></rects>
      <tilted>0</tilted></_>
    <_>
      <rects>
        <_>
          11 5 4 4 -1.</_>
        <_>
          13 5 2 4 2.</_></rects>
      <tilted>0</tilted></_>
    <_>
      <rects>
        <_>
          11 5 6 6 -1.</_>
        <_>
          11 7 6 2 3.</_></rects>
      <tilted>0</tilted></_>
    <_>
      <rects>
        <_>
          11 7 5 3 -1.</_>
        <_>
          11 8 5 1 3.</_></rects>
      <tilted>0</tilted></_>
    <_>
      <rects>
        <_>
          11 8 2 2 -1.</_>
        <_>
          11 8 1 1 2.</_>
        <_>
          12 9 1 1 2.</_></rects>
      <tilted>0</tilted></_>
    <_>
      <rects>
        <_>
          11 11 16 2 -1.</_>
        <_>
          11 12 16 1 2.</_></rects>
      <tilted>0</tilted></_>
    <_>
      <rects>
        <_>
          12 2 2 13 -1.</_>
        <_>
          13 2 1 13 2.</_></rects>
      <tilted>0</tilted></_>
    <_>
      <rects>
        <_>
          12 3 5 9 -1.</_>
        <_>
          12 6 5 3 3.</_></rects>
      <tilted>0</tilted></_>
    <_>
      <rects>
        <_>
          12 5 6 2 -1.</_>
        <_>
          12 6 6 1 2.</_></rects>
      <tilted>0</tilted></_>
    <_>
      <rects>
        <_>
          12 7 3 3 -1.</_>
        <_>
          12 8 3 1 3.</_></rects>
      <tilted>0</tilted></_>
    <_>
      <rects>
        <_>
          12 7 4 6 -1.</_>
        <_>
          12 10 4 3 2.</_></rects>
      <tilted>0</tilted></_>
    <_>
      <rects>
        <_>
          12 7 5 4 -1.</_>
        <_>
          12 9 5 2 2.</_></rects>
      <tilted>0</tilted></_>
    <_>
      <rects>
        <_>
          12 8 2 2 -1.</_>
        <_>
          12 8 1 1 2.</_>
        <_>
          13 9 1 1 2.</_></rects>
      <tilted>0</tilted></_>
    <_>
      <rects>
        <_>
          12 9 2 2 -1.</_>
        <_>
          12 9 1 1 2.</_>
        <_>
          13 10 1 1 2.</_></rects>
      <tilted>0</tilted></_>
    <_>
      <rects>
        <_>
          12 11 4 3 -1.</_>
        <_>
          12 12 4 1 3.</_></rects>
      <tilted>0</tilted></_>
    <_>
      <rects>
        <_>
          12 12 3 3 -1.</_>
        <_>
          13 12 1 3 3.</_></rects>
      <tilted>0</tilted></_>
    <_>
      <rects>
        <_>
          12 13 3 2 -1.</_>
        <_>
          13 13 1 2 3.</_></rects>
      <tilted>0</tilted></_>
    <_>
      <rects>
        <_>
          12 13 6 2 -1.</_>
        <_>
          14 13 2 2 3.</_></rects>
      <tilted>0</tilted></_>
    <_>
      <rects>
        <_>
          13 0 3 3 -1.</_>
        <_>
          14 0 1 3 3.</_></rects>
      <tilted>0</tilted></_>
    <_>
      <rects>
        <_>
          13 0 6 2 -1.</_>
        <_>
          15 0 2 2 3.</_></rects>
      <tilted>0</tilted></_>
    <_>
      <rects>
        <_>
          13 3 3 6 -1.</_>
        <_>
          13 6 3 3 2.</_></rects>
      <tilted>0</tilted></_>
    <_>
      <rects>
        <_>
          13 6 2 4 -1.</_>
        <_>
          13 6 1 2 2.</_>
        <_>
          14 8 1 2 2.</_></rects>
      <tilted>0</tilted></_>
    <_>
      <rects>
        <_>
          13 6 5 2 -1.</_>
        <_>
          13 7 5 1 2.</_></rects>
      <tilted>0</tilted></_>
    <_>
      <rects>
        <_>
          13 7 2 2 -1.</_>
        <_>
          13 8 2 1 2.</_></rects>
      <tilted>0</tilted></_>
    <_>
      <rects>
        <_>
          13 7 6 4 -1.</_>
        <_>
          13 7 3 2 2.</_>
        <_>
          16 9 3 2 2.</_></rects>
      <tilted>0</tilted></_>
    <_>
      <rects>
        <_>
          13 9 2 2 -1.</_>
        <_>
          13 9 1 1 2.</_>
        <_>
          14 10 1 1 2.</_></rects>
      <tilted>0</tilted></_>
    <_>
      <rects>
        <_>
          14 2 10 2 -1.</_>
        <_>
          14 3 10 1 2.</_></rects>
      <tilted>0</tilted></_>
    <_>
      <rects>
        <_>
          14 4 3 5 -1.</_>
        <_>
          15 4 1 5 3.</_></rects>
      <tilted>0</tilted></_>
    <_>
      <rects>
        <_>
          14 6 3 3 -1.</_>
        <_>
          14 7 3 1 3.</_></rects>
      <tilted>0</tilted></_>
    <_>
      <rects>
        <_>
          14 7 2 4 -1.</_>
        <_>
          14 9 2 2 2.</_></rects>
      <tilted>0</tilted></_>
    <_>
      <rects>
        <_>
          14 11 7 2 -1.</_>
        <_>
          14 12 7 1 2.</_></rects>
      <tilted>0</tilted></_>
    <_>
      <rects>
        <_>
          15 1 3 2 -1.</_>
        <_>
          16 1 1 2 3.</_></rects>
      <tilted>0</tilted></_>
    <_>
      <rects>
        <_>
          15 5 3 3 -1.</_>
        <_>
          16 5 1 3 3.</_></rects>
      <tilted>0</tilted></_>
    <_>
      <rects>
        <_>
          15 6 3 2 -1.</_>
        <_>
          16 6 1 2 3.</_></rects>
      <tilted>0</tilted></_>
    <_>
      <rects>
        <_>
          15 6 3 5 -1.</_>
        <_>
          16 6 1 5 3.</_></rects>
      <tilted>0</tilted></_>
    <_>
      <rects>
        <_>
          15 7 3 1 -1.</_>
        <_>
          16 7 1 1 3.</_></rects>
      <tilted>0</tilted></_>
    <_>
      <rects>
        <_>
          15 7 2 3 -1.</_>
        <_>
          16 7 1 3 2.</_></rects>
      <tilted>0</tilted></_>
    <_>
      <rects>
        <_>
          16 0 6 2 -1.</_>
        <_>
          18 0 2 2 3.</_></rects>
      <tilted>0</tilted></_>
    <_>
      <rects>
        <_>
          16 3 2 6 -1.</_>
        <_>
          17 3 1 6 2.</_></rects>
      <tilted>0</tilted></_>
    <_>
      <rects>
        <_>
          16 5 3 4 -1.</_>
        <_>
          17 5 1 4 3.</_></rects>
      <tilted>0</tilted></_>
    <_>
      <rects>
        <_>
          16 6 3 2 -1.</_>
        <_>
          17 6 1 2 3.</_></rects>
      <tilted>0</tilted></_>
    <_>
      <rects>
        <_>
          16 7 3 2 -1.</_>
        <_>
          17 7 1 2 3.</_></rects>
      <tilted>0</tilted></_>
    <_>
      <rects>
        <_>
          16 8 3 1 -1.</_>
        <_>
          17 8 1 1 3.</_></rects>
      <tilted>0</tilted></_>
    <_>
      <rects>
        <_>
          16 13 3 2 -1.</_>
        <_>
          17 13 1 2 3.</_></rects>
      <tilted>0</tilted></_>
    <_>
      <rects>
        <_>
          17 0 3 2 -1.</_>
        <_>
          18 0 1 2 3.</_></rects>
      <tilted>0</tilted></_>
    <_>
      <rects>
        <_>
          17 0 6 2 -1.</_>
        <_>
          19 0 2 2 3.</_></rects>
      <tilted>0</tilted></_>
    <_>
      <rects>
        <_>
          17 3 3 9 -1.</_>
        <_>
          18 3 1 9 3.</_></rects>
      <tilted>0</tilted></_>
    <_>
      <rects>
        <_>
          17 4 3 5 -1.</_>
        <_>
          18 4 1 5 3.</_></rects>
      <tilted>0</tilted></_>
    <_>
      <rects>
        <_>
          17 5 3 4 -1.</_>
        <_>
          18 5 1 4 3.</_></rects>
      <tilted>0</tilted></_>
    <_>
      <rects>
        <_>
          17 7 3 2 -1.</_>
        <_>
          18 7 1 2 3.</_></rects>
      <tilted>0</tilted></_>
    <_>
      <rects>
        <_>
          17 11 12 4 -1.</_>
        <_>
          21 11 4 4 3.</_></rects>
      <tilted>0</tilted></_>
    <_>
      <rects>
        <_>
          18 0 3 2 -1.</_>
        <_>
          19 0 1 2 3.</_></rects>
      <tilted>0</tilted></_>
    <_>
      <rects>
        <_>
          18 0 6 3 -1.</_>
        <_>
          20 0 2 3 3.</_></rects>
      <tilted>0</tilted></_>
    <_>
      <rects>
        <_>
          18 2 4 3 -1.</_>
        <_>
          18 3 4 1 3.</_></rects>
      <tilted>0</tilted></_>
    <_>
      <rects>
        <_>
          18 2 5 3 -1.</_>
        <_>
          18 3 5 1 3.</_></rects>
      <tilted>0</tilted></_>
    <_>
      <rects>
        <_>
          18 3 7 3 -1.</_>
        <_>
          18 4 7 1 3.</_></rects>
      <tilted>0</tilted></_>
    <_>
      <rects>
        <_>
          18 4 3 8 -1.</_>
        <_>
          19 4 1 8 3.</_></rects>
      <tilted>0</tilted></_>
    <_>
      <rects>
        <_>
          18 6 3 4 -1.</_>
        <_>
          19 6 1 4 3.</_></rects>
      <tilted>0</tilted></_>
    <_>
      <rects>
        <_>
          18 14 3 1 -1.</_>
        <_>
          19 14 1 1 3.</_></rects>
      <tilted>0</tilted></_>
    <_>
      <rects>
        <_>
          19 0 6 2 -1.</_>
        <_>
          21 0 2 2 3.</_></rects>
      <tilted>0</tilted></_>
    <_>
      <rects>
        <_>
          19 3 3 8 -1.</_>
        <_>
          20 3 1 8 3.</_></rects>
      <tilted>0</tilted></_>
    <_>
      <rects>
        <_>
          19 3 3 12 -1.</_>
        <_>
          20 3 1 12 3.</_></rects>
      <tilted>0</tilted></_>
    <_>
      <rects>
        <_>
          19 6 3 3 -1.</_>
        <_>
          20 6 1 3 3.</_></rects>
      <tilted>0</tilted></_>
    <_>
      <rects>
        <_>
          19 6 3 5 -1.</_>
        <_>
          20 6 1 5 3.</_></rects>
      <tilted>0</tilted></_>
    <_>
      <rects>
        <_>
          19 9 2 1 -1.</_>
        <_>
          20 9 1 1 2.</_></rects>
      <tilted>0</tilted></_>
    <_>
      <rects>
        <_>
          19 10 3 2 -1.</_>
        <_>
          19 11 3 1 2.</_></rects>
      <tilted>0</tilted></_>
    <_>
      <rects>
        <_>
          19 12 6 3 -1.</_>
        <_>
          21 12 2 3 3.</_></rects>
      <tilted>0</tilted></_>
    <_>
      <rects>
        <_>
          19 14 6 1 -1.</_>
        <_>
          21 14 2 1 3.</_></rects>
      <tilted>0</tilted></_>
    <_>
      <rects>
        <_>
          20 1 3 11 -1.</_>
        <_>
          21 1 1 11 3.</_></rects>
      <tilted>0</tilted></_>
    <_>
      <rects>
        <_>
          20 3 3 8 -1.</_>
        <_>
          21 3 1 8 3.</_></rects>
      <tilted>0</tilted></_>
    <_>
      <rects>
        <_>
          20 5 3 4 -1.</_>
        <_>
          21 5 1 4 3.</_></rects>
      <tilted>0</tilted></_>
    <_>
      <rects>
        <_>
          20 7 3 1 -1.</_>
        <_>
          21 7 1 1 3.</_></rects>
      <tilted>0</tilted></_>
    <_>
      <rects>
        <_>
          20 11 8 3 -1.</_>
        <_>
          20 12 8 1 3.</_></rects>
      <tilted>0</tilted></_>
    <_>
      <rects>
        <_>
          21 0 3 1 -1.</_>
        <_>
          22 0 1 1 3.</_></rects>
      <tilted>0</tilted></_>
    <_>
      <rects>
        <_>
          21 1 3 10 -1.</_>
        <_>
          22 1 1 10 3.</_></rects>
      <tilted>0</tilted></_>
    <_>
      <rects>
        <_>
          21 2 9 10 -1.</_>
        <_>
          24 2 3 10 3.</_></rects>
      <tilted>0</tilted></_>
    <_>
      <rects>
        <_>
          21 2 8 12 -1.</_>
        <_>
          25 2 4 12 2.</_></rects>
      <tilted>0</tilted></_>
    <_>
      <rects>
        <_>
          21 3 2 8 -1.</_>
        <_>
          21 3 1 4 2.</_>
        <_>
          22 7 1 4 2.</_></rects>
      <tilted>0</tilted></_>
    <_>
      <rects>
        <_>
          21 3 3 7 -1.</_>
        <_>
          22 3 1 7 3.</_></rects>
      <tilted>0</tilted></_>
    <_>
      <rects>
        <_>
          21 5 3 7 -1.</_>
        <_>
          22 5 1 7 3.</_></rects>
      <tilted>0</tilted></_>
    <_>
      <rects>
        <_>
          21 6 3 3 -1.</_>
        <_>
          22 6 1 3 3.</_></rects>
      <tilted>0</tilted></_>
    <_>
      <rects>
        <_>
          21 11 6 3 -1.</_>
        <_>
          21 12 6 1 3.</_></rects>
      <tilted>0</tilted></_>
    <_>
      <rects>
        <_>
          22 1 7 3 -1.</_>
        <_>
          22 2 7 1 3.</_></rects>
      <tilted>0</tilted></_>
    <_>
      <rects>
        <_>
          22 2 3 8 -1.</_>
        <_>
          23 2 1 8 3.</_></rects>
      <tilted>0</tilted></_>
    <_>
      <rects>
        <_>
          22 3 3 9 -1.</_>
        <_>
          23 3 1 9 3.</_></rects>
      <tilted>0</tilted></_>
    <_>
      <rects>
        <_>
          22 13 6 2 -1.</_>
        <_>
          24 13 2 2 3.</_></rects>
      <tilted>0</tilted></_>
    <_>
      <rects>
        <_>
          22 13 5 2 -1.</_>
        <_>
          22 14 5 1 2.</_></rects>
      <tilted>0</tilted></_>
    <_>
      <rects>
        <_>
          22 14 3 1 -1.</_>
        <_>
          23 14 1 1 3.</_></rects>
      <tilted>0</tilted></_>
    <_>
      <rects>
        <_>
          23 4 3 9 -1.</_>
        <_>
          24 4 1 9 3.</_></rects>
      <tilted>0</tilted></_>
    <_>
      <rects>
        <_>
          23 5 3 6 -1.</_>
        <_>
          24 5 1 6 3.</_></rects>
      <tilted>0</tilted></_>
    <_>
      <rects>
        <_>
          23 12 3 3 -1.</_>
        <_>
          23 13 3 1 3.</_></rects>
      <tilted>0</tilted></_>
    <_>
      <rects>
        <_>
          24 1 6 11 -1.</_>
        <_>
          27 1 3 11 2.</_></rects>
      <tilted>0</tilted></_>
    <_>
      <rects>
        <_>
          24 2 3 12 -1.</_>
        <_>
          25 2 1 12 3.</_></rects>
      <tilted>0</tilted></_>
    <_>
      <rects>
        <_>
          24 4 3 7 -1.</_>
        <_>
          25 4 1 7 3.</_></rects>
      <tilted>0</tilted></_>
    <_>
      <rects>
        <_>
          24 5 6 5 -1.</_>
        <_>
          27 5 3 5 2.</_></rects>
      <tilted>0</tilted></_>
    <_>
      <rects>
        <_>
          25 1 3 12 -1.</_>
        <_>
          26 1 1 12 3.</_></rects>
      <tilted>0</tilted></_>
    <_>
      <rects>
        <_>
          25 2 3 8 -1.</_>
        <_>
          26 2 1 8 3.</_></rects>
      <tilted>0</tilted></_>
    <_>
      <rects>
        <_>
          25 3 3 10 -1.</_>
        <_>
          26 3 1 10 3.</_></rects>
      <tilted>0</tilted></_>
    <_>
      <rects>
        <_>
          25 3 4 9 -1.</_>
        <_>
          27 3 2 9 2.</_></rects>
      <tilted>0</tilted></_>
    <_>
      <rects>
        <_>
          26 0 3 13 -1.</_>
        <_>
          27 0 1 13 3.</_></rects>
      <tilted>0</tilted></_>
    <_>
      <rects>
        <_>
          27 0 3 11 -1.</_>
        <_>
          28 0 1 11 3.</_></rects>
      <tilted>0</tilted></_>
    <_>
      <rects>
        <_>
          27 2 3 8 -1.</_>
        <_>
          28 2 1 8 3.</_></rects>
      <tilted>0</tilted></_>
    <_>
      <rects>
        <_>
          27 2 3 10 -1.</_>
        <_>
          28 2 1 10 3.</_></rects>
      <tilted>0</tilted></_>
    <_>
      <rects>
        <_>
          27 2 3 11 -1.</_>
        <_>
          28 2 1 11 3.</_></rects>
      <tilted>0</tilted></_>
    <_>
      <rects>
        <_>
          27 3 3 10 -1.</_>
        <_>
          28 3 1 10 3.</_></rects>
      <tilted>0</tilted></_>
    <_>
      <rects>
        <_>
          28 3 2 7 -1.</_>
        <_>
          29 3 1 7 2.</_></rects>
      <tilted>0</tilted></_>
    <_>
      <rects>
        <_>
          29 4 1 6 -1.</_>
        <_>
          29 6 1 2 3.</_></rects>
      <tilted>0</tilted></_>
    <_>
      <rects>
        <_>
          29 7 1 4 -1.</_>
        <_>
          29 9 1 2 2.</_></rects>
      <tilted>0</tilted></_></features></cascade>
</opencv_storage>
